svm_type c_svc
kernel_type linear
nr_class 2
total_sv 279
rho -1.21665
label 6 8
nr_sv 133 146
SV
0.7674211451726513 99:0.360784 100:1 101:0.54902 126:0.0156863 127:0.745098 128:0.996078 129:0.168627 154:0.431373 155:0.992157 156:0.952941 157:0.109804 182:0.654902 183:0.992157 184:0.556863 209:0.054902 210:0.854902 211:0.992157 212:0.356863 237:0.501961 238:0.996078 239:0.894118 264:0.0470588 265:0.858824 266:0.992157 267:0.556863 292:0.235294 293:0.972549 294:0.905882 295:0.141176 320:0.521569 321:0.960784 322:0.564706 348:0.568627 349:0.992157 350:0.843137 351:0.231373 376:0.698039 377:0.996078 378:0.996078 379:0.866667 380:0.105882 404:0.568627 405:0.992157 406:0.568627 407:0.929412 408:0.745098 409:0.0941176 432:0.568627 433:0.992157 434:0.211765 435:0.101961 436:0.945098 437:0.729412 460:0.568627 461:0.992157 462:0.211765 464:0.341176 465:0.862745 466:0.239216 488:0.368627 489:0.941176 490:0.466667 493:0.666667 494:0.898039 495:0.0784314 516:0.129412 517:0.854902 518:0.564706 521:0.215686 522:0.996078 523:0.541176 545:0.85098 546:0.564706 549:0.0627451 550:0.890196 551:0.921569 573:0.34902 574:0.85098 575:0.0431373 577:0.0313725 578:0.564706 579:0.921569 602:0.627451 603:0.713725 604:0.301961 605:0.25098 606:0.886275 607:0.870588 630:0.121569 631:0.662745 632:0.996078 633:0.992157 634:0.760784 635:0.0627451 
0.4165510059380404 130:0.14902 131:0.443137 132:0.811765 133:0.992157 134:1 135:0.992157 136:0.870588 137:0.149606 157:0.337255 158:0.858824 159:0.988235 160:0.988235 161:0.988235 162:0.843137 163:0.47451 164:0.415686 165:0.0352941 183:0.027451 184:0.529412 185:0.992157 186:0.988235 187:0.815686 188:0.705882 189:0.215686 190:0.121569 209:0.0392157 210:0.235294 211:0.698039 212:0.988235 213:0.941176 214:0.690196 215:0.0745098 237:0.333333 238:0.988235 239:0.988235 240:0.988235 241:0.247059 265:0.886275 266:0.992157 267:0.941176 268:0.247059 292:0.576471 293:0.976471 294:0.988235 295:0.388235 320:0.992157 321:0.988235 322:0.690196 323:0.0745098 346:0.0156863 347:0.419608 348:0.992157 349:0.764706 350:0.0745098 374:0.113725 375:0.988235 376:0.992157 377:0.654902 402:0.666667 403:0.992157 404:1 405:0.992157 406:0.992157 407:0.623529 408:0.443137 429:0.2 430:0.952941 431:0.988235 432:0.992157 433:0.988235 434:0.988235 435:0.988235 436:0.988235 437:0.886275 438:0.282353 457:0.345098 458:0.988235 459:0.988235 460:0.768627 461:0.764706 462:0.764706 463:0.792157 464:0.988235 465:0.992157 466:0.654902 485:0.403922 486:0.988235 487:0.988235 491:0.0392157 492:0.694118 493:0.992157 494:0.654902 513:0.223529 514:0.988235 515:0.988235 520:0.54902 521:0.992157 522:0.839216 523:0.121569 541:0.776471 542:0.992157 543:0.992157 548:0.552941 549:1 550:0.658824 568:0.113725 569:0.843137 570:0.988235 571:0.988235 575:0.286275 576:0.941176 577:0.843137 578:0.439216 596:0.0745098 597:0.694118 598:0.988235 599:0.988235 600:0.12549 602:0.176471 603:0.733333 604:0.988235 605:0.431373 625:0.0745098 626:0.694118 627:0.937255 628:0.847059 629:0.623529 630:0.831373 631:0.988235 632:0.92549 655:0.247059 656:0.439216 657:0.290196 658:0.223529 659:0.615686 660:0.196078 
0.2226165964016511 98:0.00392157 99:0.341176 100:0.505882 101:0.666667 102:0.0470588 125:0.286275 126:0.670588 127:0.996078 128:0.996078 129:0.996078 130:0.129412 152:0.333333 153:0.937255 154:0.996078 155:0.917647 156:0.580392 157:0.988235 158:0.12549 179:0.223529 180:0.937255 181:0.92549 182:0.341176 183:0.141176 184:0.0509804 185:0.333333 206:0.333333 207:0.933333 208:0.94902 209:0.211765 233:0.0627451 234:0.85098 235:0.996078 236:0.498039 246:0.0941176 247:0.101961 248:0.101961 249:0.00392157 260:0.00784314 261:0.678431 262:0.996078 263:0.737255 264:0.054902 273:0.388235 274:0.984314 275:0.996078 276:0.996078 277:0.160784 288:0.247059 289:0.996078 290:0.917647 291:0.133333 299:0.0313725 300:0.615686 301:0.980392 302:0.960784 303:0.733333 304:0.996078 305:0.301961 315:0.00784314 316:0.74902 317:0.996078 318:0.32549 327:0.388235 328:0.996078 329:0.776471 330:0.345098 331:0.909804 332:0.847059 333:0.00784314 343:0.360784 344:0.996078 345:0.890196 346:0.0470588 354:0.215686 355:0.882353 356:0.823529 357:0.0431373 358:0.768627 359:0.996078 360:0.254902 371:0.690196 372:0.996078 373:0.439216 381:0.501961 382:0.976471 383:0.956863 384:0.133333 385:0.552941 386:0.988235 387:0.690196 388:0.00784314 398:0.0117647 399:0.85098 400:0.988235 401:0.223529 408:0.501961 409:0.976471 410:0.996078 411:0.317647 412:0.45098 413:0.988235 414:0.878431 415:0.0862745 426:0.0901961 427:0.996078 428:0.94902 435:0.32549 436:0.976471 437:0.996078 438:0.458824 439:0.466667 440:0.984314 441:0.941176 442:0.0941176 454:0.34902 455:0.996078 456:0.764706 462:0.0352941 463:0.823529 464:0.996078 465:0.458824 466:0.211765 467:0.94902 468:0.941176 469:0.243137 482:0.34902 483:0.996078 484:0.619608 490:0.419608 491:0.996078 492:0.811765 493:0.192157 494:0.870588 495:0.941176 496:0.243137 510:0.34902 511:0.996078 512:0.921569 518:0.803922 519:0.996078 520:0.490196 521:0.913725 522:0.941176 523:0.243137 538:0.14902 539:0.996078 540:0.980392 541:0.168627 546:0.803922 547:0.996078 548:0.976471 549:0.996078 550:0.494118 566:0.00392157 567:0.701961 568:0.996078 569:0.835294 570:0.262745 572:0.0352941 573:0.494118 574:0.988235 575:0.996078 576:0.996078 577:0.505882 578:0.00784314 595:0.152941 596:0.905882 597:0.996078 598:0.984314 599:0.968627 600:0.972549 601:0.996078 602:0.996078 603:0.996078 604:0.996078 605:0.458824 624:0.027451 625:0.576471 626:0.913725 627:0.996078 628:0.996078 629:0.737255 630:0.407843 631:0.611765 632:0.396078 633:0.168627 
0.2766338668474898 97:0.121569 98:0.701961 99:1 100:0.447059 125:0.65098 126:0.992157 127:0.992157 128:0.458824 152:0.345098 153:0.980392 154:0.992157 155:0.823529 156:0.0901961 179:0.0941176 180:0.913725 181:0.992157 182:0.678431 183:0.101961 206:0.054902 207:0.815686 208:0.992157 209:0.658824 210:0.109804 234:0.219608 235:0.992157 236:0.835294 237:0.105882 261:0.290196 262:0.937255 263:0.976471 264:0.160784 289:0.427451 290:0.968627 291:0.368627 316:0.0627451 317:0.847059 318:0.882353 344:0.396078 345:0.992157 346:0.486275 354:0.466667 355:0.447059 356:0.490196 357:0.207843 358:0.313725 359:0.592157 360:0.0745098 372:0.54902 373:0.866667 374:0.129412 380:0.470588 381:0.627451 382:0.945098 383:0.992157 384:0.992157 385:0.992157 386:0.992157 387:0.992157 388:0.364706 400:0.882353 401:0.435294 406:0.0823529 407:0.819608 408:0.992157 409:0.992157 410:0.870588 411:0.611765 412:0.427451 413:0.623529 414:0.941176 415:0.992157 416:0.764706 427:0.129412 428:0.313725 429:0.0666667 434:0.431373 435:0.839216 436:0.564706 437:0.25098 438:0.0588235 442:0.364706 443:0.992157 444:0.768627 455:0.368627 456:0.654902 457:0.0352941 461:0.0509804 462:0.192157 463:0.0470588 470:0.266667 471:0.988235 472:0.345098 483:0.658824 484:0.866667 485:0.388235 488:0.0196078 489:0.388235 497:0.0588235 498:0.788235 499:0.952941 511:0.541176 512:0.207843 513:0.647059 516:0.0666667 517:0.176471 524:0.184314 525:0.690196 526:0.635294 527:0.152941 540:0.376471 541:0.803922 542:0.164706 544:0.243137 550:0.203922 551:0.486275 552:0.901961 553:0.803922 568:0.54902 569:0.992157 570:0.921569 571:0.572549 572:0.862745 573:0.490196 574:0.0431373 575:0.211765 576:0.529412 577:0.682353 578:0.960784 579:0.921569 580:0.423529 581:0.0705882 596:0.262745 597:0.843137 598:0.992157 599:0.992157 600:0.992157 601:0.992157 602:0.992157 603:0.992157 604:0.992157 605:0.705882 606:0.364706 607:0.172549 625:0.0627451 626:0.552941 627:0.701961 628:0.827451 629:0.72549 630:0.415686 631:0.180392 632:0.180392 633:0.00392157 
0.1290810437146839 101:0.133333 102:0.662745 103:0.980392 104:0.156863 128:0.227451 129:0.94902 130:0.866667 131:0.560784 132:0.0666667 155:0.294118 156:0.968627 157:0.560784 158:0.0392157 182:0.145098 183:0.960784 184:0.721569 185:0.00784314 209:0.0313725 210:0.752941 211:0.784314 212:0.054902 237:0.545098 238:0.968627 239:0.109804 264:0.027451 265:0.905882 266:0.717647 292:0.490196 293:0.952941 294:0.196078 320:0.764706 321:0.721569 347:0.239216 348:0.984314 349:0.160784 353:0.25098 354:0.168627 375:0.596078 376:0.823529 377:0.027451 379:0.376471 380:0.929412 381:0.996078 382:0.968627 383:0.419608 403:0.980392 404:0.329412 406:0.0235294 407:0.87451 408:0.329412 409:0.0509804 410:0.341176 411:0.964706 412:0.282353 430:0.168627 431:0.996078 432:0.313725 434:0.219608 435:0.592157 439:0.576471 440:0.756863 458:0.262745 459:0.996078 460:0.160784 462:0.0509804 463:0.0745098 467:0.164706 468:0.992157 486:0.262745 487:0.996078 488:0.0509804 495:0.054902 496:0.992157 514:0.266667 515:1 516:0.0509804 523:0.301961 524:0.941176 542:0.262745 543:0.996078 544:0.0509804 550:0.0196078 551:0.709804 552:0.576471 570:0.0980392 571:0.898039 572:0.411765 577:0.0196078 578:0.611765 579:0.835294 580:0.0784314 599:0.419608 600:0.964706 601:0.411765 602:0.054902 603:0.192157 604:0.372549 605:0.85098 606:0.819608 607:0.105882 628:0.419608 629:0.964706 630:0.992157 631:0.992157 632:0.941176 633:0.509804 634:0.0235294 
0.401209926317907 103:0.368627 104:0.717647 130:0.517647 131:0.972549 132:0.713725 157:0.368627 158:0.980392 159:0.996078 160:0.576471 185:0.392157 186:0.996078 187:0.960784 188:0.00784314 212:0.0666667 213:0.831373 214:0.996078 215:0.6 240:0.705882 241:0.996078 242:0.745098 243:0.0588235 267:0.192157 268:0.921569 269:0.933333 270:0.215686 294:0.027451 295:0.886275 296:0.992157 297:0.501961 322:0.584314 323:0.996078 324:0.67451 349:0.145098 350:0.980392 351:0.960784 352:0.172549 376:0.0941176 377:0.835294 378:0.996078 379:0.67451 380:0.0588235 381:0.0588235 382:0.00784314 404:0.32549 405:0.996078 406:0.996078 407:0.996078 408:0.996078 409:0.996078 410:0.333333 431:0.0588235 432:0.941176 433:0.984314 434:0.560784 435:0.45098 436:0.45098 437:0.756863 438:0.654902 459:0.341176 460:0.996078 461:0.909804 465:0.305882 466:0.898039 467:0.0862745 487:0.341176 488:0.996078 489:0.439216 493:0.305882 494:0.996078 495:0.207843 515:0.682353 516:0.807843 517:0.0156863 521:0.501961 522:0.972549 523:0.176471 542:0.0745098 543:0.937255 544:0.788235 547:0.00392157 548:0.34902 549:0.92549 550:0.819608 570:0.0980392 571:0.996078 572:0.647059 573:0.0235294 574:0.266667 575:0.690196 576:0.996078 577:0.996078 578:0.45098 598:0.0470588 599:0.803922 600:0.976471 601:0.898039 602:1 603:1 604:0.941176 605:0.498039 606:0.0509804 627:0.215686 628:0.843137 629:0.968627 630:0.619608 631:0.619608 632:0.207843 
0.2282627635338744 97:0.0196078 98:0.247059 99:0.109804 122:0.0117647 123:0.243137 124:0.709804 125:0.87451 126:0.996078 127:0.921569 128:0.701961 129:0.376471 130:0.0117647 149:0.0823529 150:0.560784 151:0.996078 152:0.996078 153:0.831373 154:0.635294 155:0.701961 156:0.858824 157:0.996078 158:0.627451 176:0.0823529 177:0.686275 178:0.996078 179:0.831373 180:0.329412 181:0.0117647 183:0.00392157 184:0.0313725 185:0.572549 186:0.92549 187:0.12549 203:0.0117647 204:0.419608 205:0.996078 206:0.878431 207:0.0431373 213:0.301961 214:0.996078 215:0.203922 231:0.388235 232:0.996078 233:0.831373 234:0.14902 241:0.301961 242:0.996078 243:0.203922 259:0.568627 260:0.996078 261:0.470588 268:0.113725 269:0.85098 270:0.607843 271:0.00784314 286:0.235294 287:0.972549 288:0.694118 289:0.00392157 295:0.0862745 296:0.831373 297:0.858824 298:0.105882 314:0.619608 315:0.996078 316:0.376471 323:0.572549 324:0.996078 325:0.905882 326:0.698039 327:0.682353 328:0.321569 329:0.152941 342:0.619608 343:0.886275 344:0.0156863 349:0.0862745 350:0.713725 351:0.992157 352:0.996078 353:0.996078 354:0.996078 355:0.996078 356:0.996078 357:0.964706 358:0.647059 359:0.564706 360:0.137255 370:0.784314 371:0.717647 377:0.756863 378:0.976471 379:0.65098 380:0.188235 381:0.188235 382:0.188235 383:0.2 384:0.560784 385:0.560784 386:0.854902 387:0.996078 388:0.85098 389:0.129412 398:0.996078 399:0.501961 404:0.0666667 405:0.878431 406:0.560784 414:0.00784314 415:0.752941 416:0.996078 417:0.615686 426:1 427:0.568627 432:0.172549 433:0.964706 434:0.701961 435:0.0117647 443:0.294118 444:0.996078 445:0.682353 454:1 455:0.882353 461:0.529412 462:0.996078 463:0.368627 470:0.00392157 471:0.435294 472:0.996078 473:0.835294 482:0.996078 483:0.882353 489:0.454902 490:0.996078 491:0.803922 494:0.156863 495:0.0588235 497:0.0431373 498:0.443137 499:0.996078 500:0.905882 501:0.211765 510:0.796078 511:0.984314 512:0.494118 513:0.00392157 517:0.101961 518:0.94902 519:0.976471 520:0.564706 522:0.603922 523:0.607843 524:0.403922 525:0.882353 526:0.996078 527:0.952941 528:0.305882 538:0.32549 539:0.984314 540:0.996078 541:0.690196 542:0.4 543:0.270588 544:0.0196078 545:0.164706 546:0.419608 547:0.996078 548:0.980392 549:0.772549 550:0.976471 551:0.996078 552:0.996078 553:0.992157 554:0.819608 555:0.164706 567:0.219608 568:0.92549 569:0.996078 570:0.996078 571:0.996078 572:0.996078 573:0.996078 574:0.996078 575:0.996078 576:0.996078 577:0.996078 578:0.996078 579:0.882353 580:0.623529 581:0.301961 596:0.0823529 597:0.482353 598:0.490196 599:0.490196 600:0.85098 601:0.862745 602:0.741176 603:0.490196 604:0.490196 605:0.345098 606:0.137255 607:0.0666667 
0.3320652838369906 125:0.196078 126:0.905882 127:0.917647 128:0.917647 129:0.815686 130:0.133333 152:0.501961 153:0.917647 154:0.992157 155:0.992157 156:0.913725 157:0.913725 158:0.505882 179:0.223529 180:0.898039 181:0.992157 182:0.992157 183:0.607843 184:0.176471 185:0.176471 186:0.215686 206:0.223529 207:0.890196 208:0.992157 209:0.992157 210:0.337255 211:0.0352941 233:0.0196078 234:0.768627 235:0.992157 236:0.988235 237:0.658824 238:0.0117647 247:0.0156863 248:0.0470588 249:0.0313725 261:0.572549 262:0.992157 263:0.992157 264:0.658824 274:0.447059 275:0.627451 276:0.913725 277:0.772549 278:0.235294 289:0.835294 290:0.992157 291:0.992157 292:0.403922 300:0.211765 301:0.945098 302:0.988235 303:0.992157 304:0.992157 305:0.992157 306:0.984252 316:0.341176 317:0.976471 318:0.992157 319:0.870588 320:0.0431373 326:0.0392157 327:0.658824 328:0.941176 329:0.992157 330:0.992157 331:0.992157 332:0.992157 333:0.992157 334:0.992157 343:0.12549 344:0.839216 345:0.992157 346:0.992157 347:0.419608 353:0.054902 354:0.639216 355:0.992157 356:0.992157 357:0.882353 358:0.635294 359:0.584314 360:0.992157 361:0.972549 362:0.431373 371:0.462745 372:0.992157 373:0.992157 374:0.835294 375:0.0862745 380:0.054902 381:0.635294 382:0.992157 383:0.988235 384:0.537255 385:0.235294 386:0.745098 387:0.992157 388:0.960784 389:0.447059 399:0.462745 400:0.992157 401:0.992157 402:0.717647 407:0.0392157 408:0.639216 409:0.992157 410:0.992157 411:0.984314 412:0.647059 413:0.788235 414:0.992157 415:0.835294 416:0.290196 427:0.764706 428:0.992157 429:0.992157 430:0.239216 434:0.0117647 435:0.658824 436:0.992157 437:0.992157 438:0.992157 439:0.992157 440:0.992157 441:0.968627 442:0.498039 443:0.32549 455:0.996078 456:0.992157 457:0.847059 458:0.121569 462:0.694118 463:0.992157 464:0.992157 465:0.992157 466:0.992157 467:0.992157 468:0.752941 469:0.027451 483:0.996078 484:0.992157 485:0.694118 490:0.972549 491:0.992157 492:0.992157 493:0.992157 494:0.992157 495:0.745098 496:0.027451 511:0.996078 512:0.992157 513:0.792157 514:0.32549 515:0.32549 516:0.32549 517:0.6 518:0.988235 519:0.992157 520:0.992157 521:0.992157 522:0.721569 523:0.0588235 539:0.866667 540:0.992157 541:0.992157 542:0.992157 543:0.992157 544:0.992157 545:0.992157 546:0.992157 547:0.992157 548:0.992157 549:0.992157 550:0.796078 551:0.258824 552:0.780392 553:0.780392 554:0.780392 555:0.462745 567:0.388235 568:0.980392 569:0.992157 570:0.992157 571:0.992157 572:0.992157 573:0.992157 574:0.992157 575:0.992157 576:0.992157 577:0.992157 578:0.992157 579:0.992157 580:0.913725 581:0.611765 582:0.294118 583:0.0627451 596:0.345098 597:0.376471 598:0.666667 599:0.737255 600:0.588235 601:0.376471 602:0.376471 603:0.560784 604:0.909804 605:0.909804 606:0.85098 607:0.376471 608:0.192157 
0.07596418317290352 178:0.0862745 179:0.521569 180:0.862745 181:0.94902 182:0.52549 205:0.0862745 206:0.811765 207:0.992157 208:0.992157 209:0.568627 232:0.0941176 233:0.792157 234:0.992157 235:0.992157 236:0.568627 237:0.0196078 259:0.00784314 260:0.670588 261:0.992157 262:0.988235 263:0.568627 264:0.0196078 287:0.47451 288:0.992157 289:0.992157 290:0.639216 315:0.866667 316:0.992157 317:0.992157 318:0.152941 326:0.0823529 327:0.305882 328:0.305882 329:0.305882 330:0.305882 331:0.305882 332:0.121569 343:0.564706 344:0.992157 345:0.992157 346:0.0392157 350:0.0784314 351:0.435294 352:0.623529 353:0.870588 354:0.901961 355:0.992157 356:0.992157 357:0.992157 358:0.992157 359:0.992157 360:0.917647 361:0.733333 362:0.0588235 371:0.509804 372:0.996078 373:0.996078 374:0.0980392 377:0.34902 378:0.996078 379:1 380:0.996078 381:0.870588 382:0.545098 383:0.505882 384:0.435294 385:0.623529 386:0.286275 387:0.796078 388:0.94902 389:0.996078 390:0.752941 399:0.0431373 400:0.784314 401:0.992157 402:0.607843 403:0.0901961 404:0.0941176 405:0.933333 406:0.992157 407:0.913725 408:0.541176 409:0.133333 416:0.262745 417:0.92549 418:0.67451 428:0.337255 429:0.992157 430:0.992157 431:0.596078 432:0.435294 433:0.992157 434:0.992157 435:0.333333 444:0.243137 445:0.839216 446:0.992157 456:0.0117647 457:0.568627 458:0.992157 459:0.992157 460:0.976471 461:0.992157 462:0.992157 463:0.258824 470:0.0313725 471:0.501961 472:0.980392 473:0.968627 474:0.341176 486:0.556863 487:0.917647 488:0.992157 489:0.992157 490:0.992157 491:0.737255 492:0.27451 493:0.12549 494:0.219608 495:0.0392157 496:0.117647 497:0.313725 498:0.768627 499:0.992157 500:0.862745 501:0.352941 515:0.235294 516:0.768627 517:0.992157 518:0.992157 519:0.992157 520:0.992157 521:0.905882 522:0.992157 523:0.815686 524:0.894118 525:0.992157 526:0.870588 527:0.627451 528:0.0862745 544:0.0313725 545:0.101961 546:0.592157 547:0.94902 548:0.94902 549:0.952941 550:0.94902 551:0.94902 552:0.721569 553:0.513725 554:0.337255 
1 121:0.0509804 122:0.607843 123:0.690196 149:0.0980392 150:0.996078 151:0.976471 152:0.227451 177:0.47451 178:0.996078 179:0.996078 180:0.27451 205:0.47451 206:0.996078 207:0.996078 208:0.27451 233:0.203922 234:0.996078 235:0.996078 236:0.388235 242:0.431373 243:0.686275 244:0.686275 245:0.317647 261:0.435294 262:0.996078 263:0.996078 264:0.662745 268:0.00392157 269:0.462745 270:0.984314 271:0.996078 272:0.996078 273:0.843137 274:0.0862745 289:0.47451 290:0.996078 291:0.996078 292:0.662745 296:0.152941 297:0.996078 298:0.976471 299:0.403922 300:0.627451 301:0.996078 302:0.470588 317:0.686275 318:0.996078 319:0.996078 320:0.796078 321:0.0235294 323:0.0313725 324:0.658824 325:0.996078 326:0.352941 328:0.105882 329:0.952941 330:0.839216 345:0.862745 346:0.996078 347:0.996078 348:0.662745 351:0.345098 352:0.996078 353:0.996078 354:0.156863 357:0.705882 358:0.858824 373:0.847059 374:0.54902 375:0.996078 376:0.729412 377:0.0117647 378:0.0745098 379:0.823529 380:0.996078 381:0.462745 382:0.00392157 385:0.705882 386:0.858824 401:0.309804 402:0.298039 403:0.996078 404:0.996078 405:0.0588235 406:0.376471 407:0.996078 408:0.976471 412:0.0431373 413:0.827451 414:0.858824 430:0.298039 431:0.996078 432:0.996078 433:0.0588235 434:0.376471 435:0.996078 436:0.729412 440:0.101961 441:0.996078 442:0.858824 458:0.0470588 459:0.917647 460:0.996078 461:0.392157 462:0.705882 463:0.996078 464:0.411765 468:0.278431 469:0.996078 470:0.52549 487:0.901961 488:0.996078 489:0.752941 490:0.831373 491:0.996078 492:0.196078 496:0.6 497:0.996078 498:0.207843 515:0.517647 516:0.996078 517:0.996078 518:1 519:0.996078 520:0.388235 523:0.137255 524:0.941176 525:0.843137 526:0.0392157 543:0.0352941 544:0.803922 545:0.996078 546:0.996078 547:0.996078 548:0.584314 551:0.552941 552:0.996078 553:0.682353 572:0.321569 573:0.992157 574:1 575:0.996078 576:0.960784 577:0.2 578:0.321569 579:0.972549 580:0.984314 581:0.282353 601:0.647059 602:0.996078 603:0.996078 604:0.996078 605:0.839216 606:0.960784 607:0.996078 608:0.603922 629:0.0823529 630:0.572549 631:0.996078 632:0.996078 633:1 634:0.988235 635:0.556863 636:0.0666667 659:0.443137 660:0.921569 661:0.74902 662:0.262745 
0.2851901632144598 93:0.0745098 94:0.709804 95:1 96:0.909804 97:0.14902 120:0.333333 121:0.580392 122:0.85098 123:0.992157 124:0.988235 125:0.270588 150:0.454902 151:0.992157 152:0.733333 153:0.0745098 178:0.823529 179:0.960784 180:0.227451 205:0.533333 206:0.980392 207:0.901961 232:0.0666667 233:0.831373 234:0.992157 235:0.619608 246:0.0588235 247:0.0941176 248:0.0196078 259:0.117647 260:0.894118 261:0.988235 262:0.698039 272:0.168627 273:0.635294 274:0.858824 275:0.988235 276:0.694118 277:0.141176 287:0.184314 288:0.988235 289:0.988235 290:0.415686 299:0.392157 300:0.964706 301:0.992157 302:0.988235 303:0.988235 304:0.988235 305:0.658824 315:0.54902 316:0.988235 317:0.690196 318:0.0156863 326:0.223529 327:0.956863 328:0.823529 329:0.588235 330:0.176471 331:0.176471 332:0.843137 333:0.988235 342:0.290196 343:0.956863 344:0.988235 345:0.219608 352:0.290196 353:0.901961 354:0.92549 355:0.823529 356:0.0862745 360:0.811765 361:0.988235 370:0.545098 371:0.992157 372:0.678431 379:0.0431373 380:1 381:0.976471 382:0.654902 387:0.192157 388:0.913725 389:0.537255 398:0.623529 399:0.87451 400:0.0980392 406:0.0666667 407:0.756863 408:0.992157 409:0.517647 414:0.117647 415:0.894118 416:0.988235 417:0.25098 426:0.992157 427:0.807843 434:0.364706 435:0.988235 436:0.803922 437:0.0980392 441:0.14902 442:0.607843 443:0.988235 444:0.396078 445:0.0235294 454:0.992157 455:0.807843 462:0.364706 463:0.988235 464:0.290196 469:0.705882 470:0.988235 471:0.6 472:0.0352941 482:0.788235 483:0.972549 484:0.247059 490:0.364706 491:0.988235 496:0.619608 497:0.992157 498:0.615686 499:0.0235294 510:0.501961 511:0.992157 512:0.745098 513:0.0196078 518:0.333333 519:0.984314 520:0.454902 522:0.192157 523:0.705882 524:0.992157 525:0.415686 538:0.0352941 539:0.678431 540:0.988235 541:0.262745 547:0.329412 548:0.262745 549:0.470588 550:0.894118 551:0.988235 552:0.615686 567:0.133333 568:0.917647 569:0.890196 570:0.513725 571:0.27451 572:0.27451 573:0.27451 574:0.27451 575:0.478431 576:0.870588 577:0.988235 578:0.913725 579:0.34902 580:0.0235294 596:0.254902 597:0.627451 598:0.956863 599:0.992157 600:0.988235 601:0.988235 602:0.988235 603:0.988235 604:0.960784 605:0.545098 606:0.129412 626:0.0823529 627:0.129412 628:0.537255 629:0.537255 630:0.376471 631:0.0862745 632:0.0823529 
0.7875281575786581 127:0.360784 128:0.815686 129:1 130:0.356863 154:0.0980392 155:0.921569 156:0.992157 157:0.992157 158:0.607843 181:0.0705882 182:0.792157 183:0.992157 184:0.941176 185:0.419608 186:0.0509804 209:0.709804 210:0.992157 211:0.992157 212:0.678431 236:0.34902 237:0.929412 238:0.992157 239:0.760784 240:0.0745098 264:0.937255 265:0.992157 266:0.992157 267:0.360784 291:0.184314 292:0.956863 293:0.992157 294:0.992157 295:0.941176 296:0.937255 297:0.937255 298:0.772549 299:0.109804 319:0.545098 320:0.992157 321:0.992157 322:0.992157 323:0.992157 324:0.992157 325:0.992157 326:0.992157 327:0.329412 347:0.545098 348:0.992157 349:0.992157 350:0.992157 351:0.992157 352:0.992157 353:0.992157 354:0.992157 355:0.639216 375:0.545098 376:0.992157 377:0.992157 378:0.835294 379:0.505882 380:0.168627 381:0.992157 382:0.992157 383:0.929412 402:0.0156863 403:0.584314 404:0.992157 405:0.980392 406:0.435294 408:0.027451 409:0.635294 410:0.992157 411:0.937255 412:0.0509804 430:0.152941 431:0.992157 432:0.992157 433:0.870588 437:0.486275 438:0.992157 439:0.992157 440:0.537255 458:0.152941 459:0.992157 460:0.992157 461:0.870588 465:0.486275 466:0.992157 467:0.937255 468:0.0627451 486:0.0509804 487:0.690196 488:0.992157 489:0.870588 492:0.00784314 493:0.513725 494:0.992157 495:0.933333 515:0.545098 516:0.992157 517:0.870588 520:0.0941176 521:0.992157 522:0.992157 523:0.933333 543:0.545098 544:0.992157 545:0.870588 548:0.239216 549:0.992157 550:0.992157 551:0.784314 571:0.545098 572:0.992157 573:0.94902 574:0.32549 575:0.0313725 576:0.705882 577:0.992157 578:0.984314 579:0.317647 599:0.545098 600:0.992157 601:0.992157 602:0.992157 603:0.992157 604:0.992157 605:0.992157 606:0.717647 627:0.0980392 628:0.819608 629:0.992157 630:0.992157 631:0.992157 632:0.992157 633:0.890196 634:0.2 656:0.133333 657:0.827451 658:0.992157 659:0.992157 660:0.937255 661:0.2 
1 129:0.333333 130:1 131:0.611765 157:0.635294 158:0.992157 159:0.772549 160:0.0196078 184:0.329412 185:0.988235 186:0.988235 187:0.239216 212:0.784314 213:0.992157 214:0.686275 239:0.298039 240:0.941176 241:0.929412 242:0.0862745 266:0.00392157 267:0.65098 268:0.992157 269:0.690196 294:0.0392157 295:0.839216 296:0.992157 297:0.0627451 322:0.392157 323:0.992157 324:0.713725 325:0.0156863 350:0.698039 351:0.992157 352:0.654902 353:0.0313725 378:0.913725 379:0.992157 380:0.992157 381:0.756863 405:0.427451 406:0.976471 407:0.992157 408:0.992157 409:0.909804 432:0.0196078 433:0.784314 434:0.992157 435:0.396078 436:0.4 437:0.909804 460:0.192157 461:0.992157 462:0.85098 463:0.121569 464:0.364706 465:0.909804 488:0.192157 489:0.992157 490:0.345098 492:0.521569 493:0.909804 516:0.419608 517:0.992157 518:0.0823529 519:0.435294 520:0.984314 521:0.909804 544:0.615686 545:0.992157 546:0.235294 547:0.882353 548:0.992157 549:0.509804 571:0.0196078 572:0.768627 573:0.992157 574:0.921569 575:0.992157 576:0.694118 577:0.0117647 599:0.0431373 600:0.992157 601:0.992157 602:0.992157 603:0.87451 604:0.101961 627:0.0431373 628:0.992157 629:0.992157 630:0.976471 631:0.384314 655:0.00784314 656:0.411765 657:0.713725 658:0.388235 
0.1700064328505111 128:0.701961 129:0.960784 130:0.254902 155:0.152941 156:0.996078 157:0.788235 158:0.921569 159:0.0745098 183:0.580392 184:0.866667 185:0.0117647 186:0.572549 187:0.45098 210:0.164706 211:0.988235 212:0.768627 214:0.0588235 215:0.109804 238:0.258824 239:0.960784 240:0.27451 265:0.0470588 266:0.854902 267:0.647059 293:0.188235 294:0.901961 295:0.109804 321:0.490196 322:0.827451 349:0.588235 350:0.827451 377:0.866667 378:0.654902 405:0.866667 406:0.654902 433:0.541176 434:0.827451 435:0.0235294 436:0.184314 437:0.478431 438:0.443137 439:0.12549 461:0.188235 462:0.964706 463:0.827451 464:0.980392 465:0.878431 466:0.933333 467:0.913725 489:0.223529 490:0.996078 491:0.996078 492:0.760784 493:0.145098 494:0.803922 495:0.760784 516:0.117647 517:0.827451 518:0.741176 519:0.623529 520:0.913725 521:0.913725 522:0.843137 523:0.137255 543:0.0941176 544:0.843137 545:0.647059 570:0.0156863 571:0.607843 572:0.831373 573:0.0392157 598:0.368627 599:0.913725 600:0.172549 626:0.807843 627:0.666667 628:0.0196078 629:0.0156863 654:0.266667 655:0.847059 656:0.996078 657:0.694118 
0.2811678765303033 104:0.596078 105:0.592157 132:0.756863 133:0.592157 159:0.639216 160:0.996078 161:0.592157 186:0.639216 187:0.952941 188:0.992157 189:0.592157 213:0.0823529 214:0.996078 215:0.992157 216:0.796078 217:0.0784314 240:0.0823529 241:0.635294 242:0.992157 243:0.831373 244:0.0784314 268:0.282353 269:0.992157 270:0.796078 295:0.160784 296:0.913725 297:0.988235 298:0.478431 322:0.2 323:0.756863 324:0.996078 325:0.992157 326:0.4 350:0.756863 351:0.988235 352:0.992157 353:0.988235 354:0.717647 376:0.0431373 377:0.835294 378:0.996078 379:0.992157 380:0.796078 381:0.635294 382:0.796078 404:0.360784 405:0.988235 406:0.992157 407:0.670588 410:0.796078 431:0.0823529 432:0.996078 433:0.992157 434:0.796078 437:0.243137 438:0.796078 459:0.4 460:0.992157 461:0.988235 462:0.478431 464:0.0823529 465:0.796078 466:0.635294 486:0.121569 487:0.913725 488:0.956863 489:0.317647 492:0.282353 493:0.992157 494:0.321569 514:0.2 515:0.988235 516:0.156863 519:0.321569 520:0.913725 521:0.988235 542:0.203922 543:0.992157 544:0.160784 546:0.443137 547:0.913725 548:1 549:0.356863 570:0.517647 571:0.988235 572:0.952941 573:0.796078 574:0.992157 575:0.988235 576:0.513725 577:0.0392157 598:0.203922 599:0.992157 600:1 601:0.992157 602:0.878431 603:0.317647 626:0.0392157 627:0.513725 628:0.992157 629:0.831373 630:0.239216 
0.246825341596683 108:0.0509804 109:0.0705882 110:0.507692 111:1 135:0.333333 136:0.890196 137:1 138:0.996078 139:0.132812 161:0.231373 162:0.67451 163:0.737255 164:0.996078 165:0.831373 166:0.389764 167:0.0235294 187:0.105882 188:0.705882 189:0.992157 190:0.996078 191:0.945098 192:0.596078 193:0.054902 214:0.270588 215:0.807843 216:0.996078 217:0.996078 218:0.792157 219:0.309804 241:0.407843 242:0.972549 243:0.996078 244:0.996078 245:0.34902 246:0.0470588 267:0.0588235 268:0.564706 269:0.984314 270:0.996078 271:0.803922 272:0.301961 273:0.00392157 294:0.101961 295:0.803922 296:0.996078 297:0.996078 298:0.564706 299:0.0705882 321:0.0705882 322:0.964706 323:0.996078 324:0.972549 325:0.505882 326:0.0862745 348:0.247059 349:0.823529 350:0.996078 351:0.996078 352:0.87451 353:0.180392 375:0.360784 376:0.85098 377:0.996078 378:0.996078 379:0.996078 380:0.996078 381:0.945098 382:0.180392 402:0.0823529 403:0.839216 404:0.996078 405:0.996078 406:0.996078 407:0.996078 408:0.996078 409:1 410:0.231373 429:0.0627451 430:0.776471 431:0.996078 432:0.996078 433:0.996078 434:0.988235 435:0.584314 436:0.996078 437:0.996078 438:0.231373 456:0.00392157 457:0.4 458:0.996078 459:0.996078 460:0.980392 461:0.537255 462:0.0392157 463:0.580392 464:0.996078 465:0.854902 466:0.113725 484:0.12549 485:0.996078 486:0.996078 487:0.996078 488:0.592157 490:0.352941 491:0.996078 492:0.901961 493:0.12549 512:0.537255 513:0.996078 514:0.996078 515:0.72549 516:0.0666667 518:0.956863 519:0.980392 520:0.462745 540:0.537255 541:0.996078 542:0.996078 543:0.254902 544:0.376471 545:0.721569 546:0.988235 547:0.905882 568:0.537255 569:0.996078 570:0.996078 571:0.843137 572:0.960784 573:0.996078 574:0.992157 575:0.392157 596:0.537255 597:0.996078 598:0.996078 599:0.996078 600:0.996078 601:0.996078 602:0.388235 624:0.286275 625:0.596078 626:0.996078 627:0.996078 628:0.835294 629:0.121569 630:0.00392157 
0.649434229316095 132:0.196078 133:0.584314 134:0.996078 135:0.996078 136:0.298039 158:0.0588235 159:0.235294 160:0.592157 161:0.992157 162:0.992157 163:0.992157 164:0.933333 165:0.329412 185:0.0627451 186:0.627451 187:0.992157 188:0.992157 189:0.992157 190:0.992157 191:0.992157 192:0.972549 193:0.423529 212:0.282353 213:0.996078 214:0.992157 215:0.992157 216:0.992157 217:0.992157 218:0.992157 219:0.741176 220:0.341176 239:0.678431 240:0.945098 241:0.996078 242:0.992157 243:0.992157 244:0.992157 245:0.905882 246:0.282353 247:0.054902 265:0.0627451 266:0.67451 267:0.92549 268:0.992157 269:0.996078 270:0.992157 271:0.913725 272:0.596078 273:0.203922 292:0.376471 293:0.776471 294:0.992157 295:0.992157 296:0.992157 297:0.996078 298:0.552941 299:0.164706 319:0.490196 320:0.976471 321:0.992157 322:0.992157 323:0.992157 324:0.992157 325:1 326:0.380392 345:0.0470588 346:0.760784 347:0.964706 348:0.992157 349:0.992157 350:0.992157 351:0.992157 352:0.992157 353:0.996078 354:0.937255 355:0.729412 356:0.0941176 373:0.0588235 374:0.992157 375:0.992157 376:0.992157 377:0.992157 378:0.992157 379:0.992157 380:0.992157 381:0.996078 382:0.992157 383:0.992157 384:0.521569 401:0.647059 402:0.996078 403:0.996078 404:0.996078 405:0.996078 406:1 407:0.996078 408:0.996078 409:0.588235 410:0.92549 411:0.996078 412:0.996078 413:0.113725 428:0.196078 429:0.933333 430:0.992157 431:0.992157 432:0.992157 433:0.866667 434:0.756863 435:0.309804 436:0.172549 437:0.0980392 438:0.862745 439:0.992157 440:0.882353 441:0.0862745 456:0.615686 457:0.992157 458:0.992157 459:0.992157 460:0.882353 461:0.164706 465:0.792157 466:0.992157 467:0.988235 468:0.494118 484:0.819608 485:0.992157 486:0.992157 487:0.992157 488:0.290196 492:0.282353 493:0.996078 494:0.992157 495:0.933333 511:0.368627 512:0.972549 513:0.992157 514:0.992157 515:0.556863 516:0.0352941 519:0.678431 520:0.945098 521:0.996078 522:0.992157 523:0.760784 539:0.415686 540:0.992157 541:0.992157 542:0.992157 543:0.113725 544:0.0156863 545:0.117647 546:0.329412 547:0.92549 548:0.992157 549:1 550:0.823529 551:0.101961 567:0.415686 568:0.992157 569:0.992157 570:0.992157 571:0.580392 572:0.584314 573:0.992157 574:0.992157 575:0.992157 576:0.992157 577:0.996078 578:0.756863 595:0.266667 596:0.933333 597:0.992157 598:0.992157 599:0.992157 600:0.992157 601:0.992157 602:0.992157 603:0.992157 604:0.992157 605:0.85098 606:0.145098 624:0.67451 625:0.929412 626:0.992157 627:0.992157 628:0.992157 629:0.992157 630:0.992157 631:0.960784 632:0.470588 633:0.137255 653:0.647059 654:0.992157 655:0.992157 656:0.992157 657:0.678431 658:0.407843 659:0.337255 
0.2260812329541456 95:0.027451 96:0.8 97:0.992157 98:0.690196 122:0.027451 123:0.588235 124:0.988235 125:0.988235 126:0.490196 150:0.458824 151:0.988235 152:0.729412 153:0.219608 178:0.552941 179:0.988235 180:0.462745 206:0.603922 207:0.968627 208:0.196078 233:0.101961 234:0.992157 235:0.768627 261:0.588235 262:0.992157 263:0.768627 271:0.223529 272:0.333333 273:0.333333 274:0.14902 289:0.882353 290:0.992157 291:0.376471 297:0.592157 298:0.886275 299:0.952941 300:0.988235 301:0.988235 302:0.933333 303:0.490196 316:0.0392157 317:0.898039 318:0.886275 322:0.0156863 323:0.211765 324:0.898039 325:0.992157 326:1 327:0.917647 328:0.686275 329:0.882353 330:1 331:0.894118 332:0.121569 344:0.431373 345:0.988235 346:0.588235 349:0.101961 350:0.501961 351:0.988235 352:0.988235 353:0.890196 354:0.52549 355:0.109804 358:0.698039 359:0.988235 360:0.219608 372:0.623529 373:0.988235 374:0.443137 377:0.588235 378:0.992157 379:0.988235 380:0.729412 381:0.168627 386:0.552941 387:0.988235 388:0.219608 400:0.72549 401:0.988235 402:0.443137 404:0.14902 405:0.929412 406:0.992157 407:0.592157 408:0.0235294 414:0.552941 415:0.792157 416:0.0235294 428:0.776471 429:0.992157 430:0.447059 432:0.576471 433:0.992157 434:0.639216 442:0.603922 443:0.772549 456:0.772549 457:0.988235 458:0.443137 460:0.67451 461:0.988235 462:0.737255 469:0.101961 470:0.992157 471:0.670588 484:0.772549 485:0.988235 486:0.443137 488:0.0745098 489:0.905882 490:0.968627 491:0.478431 492:0.0745098 497:0.784314 498:0.956863 499:0.219608 511:0.101961 512:0.870588 513:0.988235 514:0.443137 517:0.0980392 518:0.796078 519:0.988235 520:0.756863 521:0.0509804 523:0.298039 524:0.784314 525:0.976471 526:0.490196 540:0.72549 541:0.992157 542:0.701961 543:0.0392157 547:0.298039 548:0.137255 549:0.113725 550:0.603922 551:0.992157 552:0.956863 553:0.490196 568:0.109804 569:0.819608 570:0.992157 571:0.768627 572:0.321569 573:0.223529 574:0.223529 575:0.513725 576:0.772549 577:0.988235 578:0.992157 579:0.839216 580:0.317647 597:0.0980392 598:0.847059 599:0.988235 600:0.988235 601:0.988235 602:0.992157 603:0.988235 604:0.988235 605:0.988235 606:0.611765 607:0.0745098 626:0.0627451 627:0.403922 628:0.545098 629:0.941176 630:0.54902 631:0.545098 632:0.545098 633:0.156863 
0.9001636082539956 102:0.0156863 103:0.784314 104:1 105:0.352941 129:0.027451 130:0.670588 131:0.996078 132:0.996078 133:0.619608 157:0.545098 158:0.996078 159:0.996078 160:0.764706 161:0.129412 184:0.333333 185:0.976471 186:0.996078 187:0.745098 188:0.0509804 211:0.164706 212:0.886275 213:0.996078 214:0.74902 215:0.0470588 239:0.564706 240:0.996078 241:0.921569 242:0.168627 266:0.423529 267:0.988235 268:0.996078 269:0.431373 293:0.168627 294:0.921569 295:0.996078 296:0.729412 297:0.0352941 321:0.513725 322:0.996078 323:0.996078 324:0.698039 325:0.247059 326:0.00784314 348:0.266667 349:0.933333 350:0.996078 351:0.996078 352:0.996078 353:0.996078 354:0.509804 355:0.00392157 376:0.666667 377:0.996078 378:0.996078 379:0.996078 380:0.996078 381:0.996078 382:0.996078 383:0.282353 403:0.254902 404:0.992157 405:0.996078 406:0.996078 407:0.996078 408:0.733333 409:0.996078 410:0.996078 411:0.333333 431:0.678431 432:0.996078 433:0.996078 434:0.996078 435:0.54902 436:0.313725 437:0.996078 438:0.996078 439:0.0352941 458:0.160784 459:0.968627 460:0.996078 461:0.996078 462:0.996078 463:0.52549 464:0.639216 465:0.996078 466:0.490196 467:0.00392157 486:0.364706 487:0.996078 488:0.964706 489:0.517647 490:0.780392 491:0.721569 492:0.996078 493:0.894118 494:0.129412 514:0.796078 515:0.996078 516:0.662745 518:0.368627 519:0.945098 520:0.996078 521:0.462745 542:0.870588 543:0.996078 544:0.607843 545:0.517647 546:0.94902 547:0.996078 548:0.513725 549:0.0235294 569:0.121569 570:0.94902 571:0.996078 572:0.905882 573:0.996078 574:0.996078 575:0.737255 576:0.0745098 598:0.682353 599:0.996078 600:0.996078 601:0.996078 602:0.705882 603:0.0509804 626:0.278431 627:0.870588 628:0.890196 629:0.556863 630:0.105882 
0.2163379768666981 95:0.0156863 96:0.701961 97:0.658824 123:0.407843 124:0.988235 125:0.658824 151:0.698039 152:0.988235 153:0.658824 179:0.992157 180:0.988235 181:0.658824 207:1 208:0.992157 209:0.611765 234:0.101961 235:0.992157 236:0.988235 237:0.219608 262:0.443137 263:0.992157 264:0.988235 265:0.219608 290:0.443137 291:0.992157 292:0.988235 293:0.219608 297:0.14902 298:0.443137 299:0.447059 300:0.345098 318:0.447059 319:0.996078 320:0.968627 321:0.196078 324:0.372549 325:0.898039 326:0.992157 327:0.996078 328:0.992157 329:0.698039 330:0.0156863 346:0.443137 347:0.992157 348:0.815686 349:0.0509804 351:0.176471 352:0.882353 353:0.988235 354:0.890196 355:0.772549 356:0.917647 357:0.988235 358:0.403922 374:0.443137 375:0.992157 376:0.988235 377:0.219608 379:0.898039 380:0.988235 381:0.878431 382:0.168627 384:0.662745 385:0.988235 386:0.894118 402:0.247059 403:0.992157 404:0.988235 405:0.219608 406:0.592157 407:0.992157 408:0.890196 409:0.368627 412:0.466667 413:0.988235 414:0.988235 431:0.996078 432:0.992157 433:0.847059 434:0.945098 435:0.984314 436:0.294118 440:0.662745 441:0.992157 442:0.945098 459:0.992157 460:0.988235 461:0.988235 462:0.988235 463:0.490196 467:0.027451 468:0.733333 469:0.988235 470:0.45098 487:0.992157 488:0.988235 489:0.988235 490:0.988235 491:0.14902 495:0.258824 496:0.988235 497:0.988235 498:0.109804 515:0.403922 516:0.988235 517:0.988235 518:0.988235 519:0.247059 523:0.945098 524:0.988235 525:0.694118 526:0.0117647 543:0.0509804 544:0.811765 545:0.992157 546:0.992157 547:0.101961 549:0.0392157 550:0.701961 551:0.996078 552:0.968627 553:0.392157 572:0.321569 573:0.941176 574:0.988235 575:0.956863 576:0.662745 577:0.772549 578:0.988235 579:0.992157 580:0.47451 601:0.431373 602:0.988235 603:0.992157 604:0.988235 605:0.988235 606:0.988235 607:0.415686 608:0.0745098 629:0.0392157 630:0.305882 631:0.796078 632:0.988235 633:0.643137 634:0.156863 
0.359007556977283 101:0.301961 102:1 103:0.576471 104:0.00392157 128:0.207843 129:0.839216 130:0.996078 131:0.87451 132:0.0235294 155:0.141176 156:0.929412 157:0.996078 158:0.564706 159:0.0392157 182:0.0196078 183:0.764706 184:0.996078 185:0.686275 210:0.690196 211:0.996078 212:0.796078 213:0.0745098 237:0.321569 238:0.992157 239:0.901961 240:0.0784314 265:0.752941 266:0.996078 267:0.627451 293:0.835294 294:0.984314 295:0.239216 319:0.00392157 320:0.254902 321:0.984314 322:0.94902 347:0.121569 348:0.996078 349:0.996078 350:0.815686 375:0.0156863 376:0.847059 377:0.996078 378:0.929412 379:0.215686 404:0.729412 405:0.996078 406:0.976471 407:0.933333 408:0.329412 409:0.00392157 432:0.729412 433:0.996078 434:0.27451 435:0.690196 436:0.996078 437:0.643137 438:0.0392157 460:0.729412 461:0.996078 462:0.188235 463:0.0235294 464:0.529412 465:0.996078 466:0.572549 488:0.729412 489:0.996078 490:0.0823529 492:0.00784314 493:0.662745 494:0.992157 495:0.329412 516:0.533333 517:0.996078 518:0.356863 520:0.0470588 521:0.894118 522:0.996078 523:0.376471 544:0.227451 545:0.996078 546:0.529412 548:0.509804 549:0.996078 550:0.94902 551:0.0941176 572:0.0823529 573:0.933333 574:0.87451 575:0.564706 576:0.992157 577:0.996078 578:0.423529 601:0.407843 602:0.984314 603:0.996078 604:0.996078 605:0.709804 606:0.0509804 630:0.494118 631:0.996078 632:0.752941 633:0.0784314 
0.4660733346567792 129:0.286275 130:0.976471 131:0.831373 132:0.0862745 155:0.0235294 156:0.584314 157:0.956863 158:0.996078 159:0.996078 160:0.666667 183:0.603922 184:0.996078 185:0.996078 186:0.658824 187:0.92549 188:0.439216 209:0.0196078 210:0.494118 211:0.976471 212:0.996078 213:0.729412 214:0.0352941 215:0.443137 216:0.00784314 237:0.14902 238:0.996078 239:0.996078 240:0.756863 241:0.168627 264:0.152941 265:0.952941 266:0.996078 267:0.933333 268:0.12549 292:0.572549 293:0.996078 294:0.996078 295:0.505882 319:0.027451 320:0.615686 321:0.996078 322:0.823529 323:0.0313725 347:0.341176 348:0.996078 349:0.945098 350:0.0901961 375:0.552941 376:0.996078 377:0.635294 379:0.180392 380:0.427451 381:0.564706 382:0.709804 383:0.333333 402:0.00784314 403:0.733333 404:0.839216 405:0.290196 406:0.568627 407:0.878431 408:0.996078 409:0.996078 410:0.996078 411:0.921569 412:0.278431 430:0.356863 431:0.996078 432:0.996078 433:0.996078 434:0.996078 435:0.996078 436:0.980392 437:0.694118 438:0.603922 439:0.996078 440:0.592157 458:0.47451 459:0.996078 460:0.996078 461:0.984314 462:0.705882 463:0.380392 464:0.0705882 466:0.0156863 467:0.807843 468:0.976471 469:0.0862745 486:0.47451 487:0.996078 488:0.988235 489:0.6 495:0.498039 496:0.996078 497:0.0941176 514:0.47451 515:0.996078 516:0.537255 523:0.419608 524:0.996078 525:0.0941176 542:0.47451 543:0.996078 544:0.415686 551:0.760784 552:0.847059 553:0.0431373 570:0.466667 571:0.996078 572:0.133333 576:0.0156863 577:0.0156863 578:0.721569 579:0.952941 580:0.713725 598:0.0352941 599:0.72549 600:0.835294 601:0.266667 602:0.0823529 603:0.466667 604:0.909804 605:0.886275 606:0.996078 607:0.788235 608:0.384314 627:0.172549 628:0.92549 629:1 630:0.921569 631:0.992157 632:0.996078 633:0.996078 634:0.603922 635:0.0235294 656:0.223529 657:0.792157 658:0.996078 659:0.996078 660:0.545098 661:0.364706 662:0.0196078 
0.03790161807540331 67:0.0352941 68:1 69:0.368627 95:0.576471 96:0.996078 97:0.368627 122:0.0196078 123:0.784314 124:0.996078 125:0.176471 150:0.262745 151:0.996078 152:0.662745 153:0.00392157 178:0.713725 179:0.996078 180:0.313725 205:0.00784314 206:0.796078 207:0.992157 208:0.301961 233:0.141176 234:0.996078 235:0.843137 261:0.584314 262:0.996078 263:0.509804 269:0.121569 270:0.282353 271:0.192157 289:0.839216 290:0.996078 291:0.262745 296:0.356863 297:0.878431 298:0.996078 299:0.972549 300:0.313725 317:0.839216 318:0.980392 319:0.215686 323:0.521569 324:0.972549 325:0.921569 326:0.882353 327:0.996078 328:0.964706 329:0.321569 345:0.839216 346:0.905882 350:0.4 351:0.972549 352:0.72549 353:0.101961 354:0.0705882 355:0.670588 356:0.996078 357:0.956863 358:0.282353 372:0.152941 373:0.960784 374:0.945098 375:0.109804 377:0.145098 378:0.956863 379:0.894118 380:0.180392 383:0.0745098 384:0.54902 385:0.996078 386:0.756863 400:0.054902 401:0.882353 402:0.996078 403:0.262745 405:0.631373 406:0.996078 407:0.470588 412:0.168627 413:0.956863 414:0.839216 415:0.00392157 429:0.839216 430:0.996078 431:0.262745 433:0.631373 434:0.996078 435:0.470588 441:0.329412 442:0.996078 443:0.192157 457:0.529412 458:0.996078 459:0.564706 461:0.968627 462:0.996078 463:0.133333 469:0.211765 470:0.898039 471:0.0745098 485:0.0627451 486:0.878431 487:0.992157 488:0.360784 489:0.784314 490:0.996078 491:0.121569 497:0.603922 498:0.835294 514:0.141176 515:0.862745 516:0.94902 517:0.945098 518:0.996078 519:0.301961 523:0.0509804 524:0.470588 525:0.94902 526:0.580392 543:0.278431 544:0.815686 545:0.996078 546:0.996078 547:0.894118 548:0.513725 549:0.458824 550:0.584314 551:0.866667 552:0.968627 553:0.576471 572:0.0823529 573:0.466667 574:0.94902 575:0.996078 576:0.996078 577:0.996078 578:0.988235 579:0.592157 580:0.192157 602:0.172549 603:0.482353 604:0.811765 605:0.996078 606:0.854902 
0.7083818451156348 130:0.478431 131:0.694118 132:0.996078 133:0.831373 134:0.34902 156:0.0235294 157:0.698039 158:0.996078 159:0.992157 160:0.992157 161:0.992157 162:0.839216 163:0.109804 184:0.52549 185:0.992157 186:0.996078 187:0.423529 188:0.101961 189:0.545098 190:0.776471 191:0.501961 192:0.282353 210:0.0509804 211:0.372549 212:0.929412 213:0.992157 214:0.435294 215:0.00784314 218:0.262745 219:0.564706 220:0.0509804 238:0.160784 239:0.992157 240:0.992157 241:0.854902 266:0.545098 267:0.992157 268:0.952941 269:0.121569 293:0.231373 294:0.894118 295:0.992157 296:0.576471 321:0.733333 322:0.992157 323:0.980392 324:0.372549 348:0.0156863 349:0.74902 350:0.992157 351:0.580392 376:0.541176 377:0.992157 378:0.992157 379:0.364706 404:0.792157 405:1 406:1 407:0.996078 408:0.419608 431:0.301961 432:0.984314 433:0.992157 434:0.992157 435:0.992157 436:0.658824 437:0.2 459:0.317647 460:0.992157 461:0.992157 462:0.992157 463:0.992157 464:0.992157 465:0.662745 487:0.317647 488:0.992157 489:0.92549 490:0.678431 491:0.878431 492:0.992157 493:0.992157 494:0.168627 515:0.317647 516:0.992157 517:0.780392 519:0.494118 520:0.992157 521:0.992157 522:0.52549 543:0.317647 544:0.992157 545:0.937255 546:0.231373 547:0.105882 548:0.992157 549:0.992157 550:0.52549 571:0.317647 572:0.992157 573:0.992157 574:0.396078 575:0.0509804 576:0.772549 577:0.992157 578:0.52549 599:0.117647 600:0.862745 601:0.992157 602:0.933333 603:0.666667 604:0.992157 605:0.992157 606:0.192157 628:0.470588 629:0.980392 630:0.992157 631:0.992157 632:0.992157 633:0.964706 657:0.34902 658:0.827451 659:0.992157 660:0.964706 661:0.223529 
0.3462800191877989 101:0.0392157 102:0.764706 103:0.0470588 128:0.282353 129:0.8 130:0.372549 131:0.0117647 154:0.0588235 155:0.47451 156:0.721569 157:0.666667 182:0.392157 183:0.996078 184:0.709804 185:0.0745098 209:0.215686 210:0.972549 211:0.666667 212:0.0313725 237:0.713725 238:0.972549 239:0.2 264:0.0745098 265:0.972549 266:0.698039 292:0.341176 293:0.996078 294:0.376471 320:0.341176 321:0.996078 322:0.168627 348:0.552941 349:0.996078 350:0.168627 376:0.552941 377:0.984314 378:0.164706 379:0.0392157 380:0.027451 404:0.596078 405:0.85098 406:0.356863 407:0.878431 408:0.815686 409:0.356863 410:0.207843 411:0.0235294 432:0.509804 433:0.996078 434:0.984314 435:0.560784 436:0.839216 437:0.733333 438:0.47451 439:0.513725 440:0.0352941 460:0.356863 461:0.996078 462:0.607843 464:0.0392157 465:0.262745 466:0.294118 467:0.85098 468:0.678431 469:0.141176 488:0.717647 489:0.890196 490:0.419608 495:0.470588 496:0.921569 497:0.337255 516:0.196078 517:0.945098 518:0.886275 523:0.494118 524:0.996078 525:0.337255 545:0.670588 546:0.92549 547:0.0196078 548:0.00392157 550:0.0156863 551:0.203922 552:0.843137 553:0.333333 573:0.352941 574:0.792157 575:0.996078 576:0.305882 577:0.188235 578:0.886275 579:0.952941 580:0.560784 602:0.109804 603:0.956863 604:0.996078 605:0.956863 606:0.792157 607:0.121569 631:0.556863 632:0.286275 633:0.243137 634:0.0784314 
1 105:0.501961 106:1 107:0.262745 132:0.333333 133:0.905882 134:0.992157 135:0.443137 158:0.00784314 159:0.529412 160:0.988235 161:0.992157 162:0.984314 163:0.0705882 186:0.490196 187:0.992157 188:0.992157 189:0.878431 190:0.309804 213:0.384314 214:0.909804 215:0.992157 216:0.776471 217:0.0823529 240:0.188235 241:0.917647 242:0.992157 243:0.960784 244:0.0823529 267:0.215686 268:0.913725 269:0.992157 270:0.847059 271:0.0745098 294:0.196078 295:0.909804 296:0.992157 297:0.964706 298:0.321569 321:0.196078 322:0.917647 323:0.992157 324:0.972549 325:0.309804 348:0.215686 349:0.909804 350:0.992157 351:0.992157 352:0.364706 354:0.141176 355:0.215686 356:0.0117647 375:0.0352941 376:0.913725 377:0.992157 378:0.992157 379:0.992157 380:0.827451 381:0.784314 382:0.921569 383:0.992157 384:0.74902 385:0.117647 402:0.027451 403:0.85098 404:0.992157 405:0.992157 406:0.992157 407:0.992157 408:0.992157 409:0.992157 410:0.992157 411:0.992157 412:0.992157 413:0.498039 429:0.0431373 430:0.658824 431:0.992157 432:0.992157 433:0.992157 434:0.992157 435:0.843137 436:0.760784 437:0.858824 438:0.815686 439:0.992157 440:0.992157 441:0.596078 457:0.337255 458:0.992157 459:0.992157 460:0.992157 461:0.862745 462:0.223529 463:0.0705882 465:0.0823529 466:0.0470588 467:0.188235 468:0.960784 469:0.737255 484:0.0235294 485:0.976471 486:0.992157 487:0.698039 488:0.384314 489:0.027451 495:0.0431373 496:0.94902 497:0.482353 512:0.313725 513:0.992157 514:0.913725 515:0.0784314 521:0.133333 522:0.356863 523:0.8 524:0.490196 540:0.447059 541:0.992157 542:0.501961 548:0.47451 549:0.913725 550:0.992157 551:0.666667 552:0.0235294 568:0.682353 569:0.992157 570:0.843137 571:0.552941 572:0.552941 573:0.552941 574:0.517647 576:0.686275 577:0.470588 578:0.345098 579:0.00392157 596:0.752941 597:0.992157 598:0.992157 599:0.992157 600:0.992157 601:0.898039 602:0.788235 624:0.258824 625:0.823529 626:0.992157 627:0.631373 628:0.992157 629:0.294118 630:0.0627451 
1 121:0.470588 122:0.619608 123:0.411765 148:0.501961 149:0.992157 150:0.996078 151:0.654902 176:0.733333 177:0.996078 178:0.996078 179:0.380392 189:0.192157 190:0.0823529 203:0.2 204:0.992157 205:0.996078 206:0.529412 207:0.00784314 214:0.12549 215:0.537255 216:0.980392 217:0.988235 218:0.976471 219:0.501961 220:0.113725 231:0.811765 232:0.996078 233:0.972549 234:0.192157 240:0.00784314 241:0.466667 242:0.929412 243:0.996078 244:0.996078 245:0.996078 246:0.996078 247:0.996078 248:0.870588 249:0.117647 258:0.0862745 259:0.909804 260:0.996078 261:0.639216 268:0.458824 269:0.996078 270:0.996078 271:0.980392 272:0.54902 273:0.337255 274:0.662745 275:0.996078 276:0.996078 277:0.243137 286:0.470588 287:0.996078 288:0.996078 289:0.396078 296:0.807843 297:0.996078 298:0.960784 299:0.333333 302:0.00784314 303:0.705882 304:0.996078 305:0.827451 314:0.933333 315:0.996078 316:0.996078 317:0.223529 323:0.0156863 324:0.823529 325:0.996078 326:0.509804 331:0.266667 332:0.996078 333:0.996078 342:0.996078 343:0.996078 344:0.878431 345:0.0117647 351:0.0588235 352:0.862745 353:0.996078 354:0.45098 359:0.266667 360:0.996078 361:0.996078 370:1 371:0.996078 372:0.635294 380:0.807843 381:0.996078 382:0.45098 386:0.00392157 387:0.545098 388:0.996078 389:0.921569 398:0.996078 399:0.996078 400:0.498039 408:0.807843 409:0.996078 410:0.619608 411:0.0117647 414:0.184314 415:0.996078 416:0.996078 417:0.454902 426:0.996078 427:0.996078 428:0.635294 436:0.552941 437:0.996078 438:0.996078 439:0.203922 441:0.0470588 442:0.717647 443:0.996078 444:0.952941 445:0.168627 454:0.933333 455:0.996078 456:0.635294 464:0.0862745 465:0.996078 466:0.996078 467:0.478431 468:0.0509804 469:0.439216 470:0.996078 471:0.996078 472:0.309804 482:0.619608 483:0.996078 484:0.921569 485:0.027451 492:0.0509804 493:0.87451 494:0.996078 495:0.988235 496:0.705882 497:0.996078 498:0.992157 499:0.611765 500:0.0235294 510:0.305882 511:0.956863 512:0.996078 513:0.501961 520:0.168627 521:0.905882 522:0.886275 523:0.996078 524:0.996078 525:0.952941 526:0.552941 539:0.607843 540:0.996078 541:0.972549 542:0.407843 543:0.0431373 548:0.0666667 549:0.470588 550:0.933333 551:0.996078 552:0.952941 553:0.290196 567:0.027451 568:0.784314 569:0.996078 570:0.996078 571:0.835294 572:0.411765 573:0.368627 574:0.286275 575:0.470588 576:0.866667 577:0.996078 578:0.996078 579:0.972549 580:0.290196 596:0.129412 597:0.643137 598:0.996078 599:0.996078 600:0.996078 601:0.996078 602:0.996078 603:0.996078 604:0.996078 605:0.996078 606:0.85098 607:0.286275 625:0.027451 626:0.290196 627:0.611765 628:0.890196 629:0.996078 630:0.996078 631:0.917647 632:0.698039 633:0.231373 634:0.0509804 656:0.0509804 657:0.243137 658:0.243137 659:0.105882 
0.5102370568088926 68:0.211765 69:0.678431 70:0.0392157 95:0.121569 96:0.917647 97:0.992157 98:0.145098 122:0.0784314 123:0.803922 124:0.992157 125:0.819608 126:0.0352941 150:0.298039 151:0.992157 152:0.992157 153:0.415686 177:0.054902 178:0.768627 179:0.976471 180:0.427451 181:0.00392157 205:0.32549 206:0.992157 207:0.890196 233:0.662745 234:0.992157 235:0.290196 260:0.0117647 261:0.737255 262:0.811765 263:0.00784314 288:0.0392157 289:0.992157 290:0.807843 297:0.101961 298:0.113725 299:0.113725 300:0.0509804 316:0.0392157 317:0.992157 318:0.807843 323:0.137255 324:0.6 325:0.964706 326:0.992157 327:0.992157 328:0.780392 329:0.0705882 344:0.027451 345:0.909804 346:0.670588 350:0.443137 351:0.996078 352:1 353:0.996078 354:0.996078 355:0.996078 356:0.996078 357:0.921569 373:0.662745 374:0.835294 375:0.027451 377:0.447059 378:0.976471 379:0.992157 380:0.996078 381:0.913725 382:0.843137 383:0.733333 384:0.568627 385:0.956863 386:0.152941 401:0.509804 402:0.992157 403:0.470588 404:0.27451 405:0.984314 406:0.992157 407:0.992157 408:0.72549 409:0.145098 412:0.0431373 413:0.835294 414:0.588235 415:0.00392157 429:0.207843 430:0.968627 431:0.843137 432:0.894118 433:0.992157 434:0.992157 435:0.772549 441:0.443137 442:0.992157 443:0.0352941 458:0.376471 459:0.992157 460:0.992157 461:0.992157 462:0.929412 463:0.113725 469:0.443137 470:0.992157 471:0.0352941 486:0.0352941 487:0.815686 488:0.992157 489:0.992157 490:0.576471 496:0.0156863 497:0.756863 498:0.717647 499:0.00784314 515:0.160784 516:0.894118 517:0.992157 518:0.85098 519:0.305882 524:0.435294 525:0.992157 526:0.4 544:0.14902 545:0.890196 546:0.992157 547:0.976471 548:0.729412 549:0.588235 550:0.588235 551:0.835294 552:0.988235 553:0.917647 554:0.0117647 573:0.168627 574:0.552941 575:0.960784 576:0.996078 577:0.992157 578:0.992157 579:0.992157 580:0.968627 581:0.541176 603:0.192157 604:0.258824 605:0.580392 606:0.490196 607:0.513725 608:0.207843 
0.4972855592990925 127:0.0901961 128:1 129:0.619608 155:0.556863 156:0.996078 157:0.913725 182:0.109804 183:0.921569 184:0.996078 185:0.647059 210:0.156863 211:0.992157 212:0.996078 213:0.180392 238:0.156863 239:0.992157 240:0.905882 241:0.0941176 266:0.623529 267:0.996078 268:0.768627 293:0.262745 294:0.980392 295:0.992157 296:0.266667 321:0.309804 322:0.992157 323:0.992157 349:0.658824 350:0.992157 351:0.992157 352:0.921569 353:0.560784 354:0.0470588 376:0.0627451 377:0.921569 378:0.992157 379:0.992157 380:0.996078 381:0.992157 382:0.45098 404:0.54902 405:0.996078 406:0.956863 407:0.470588 409:0.517647 410:0.996078 411:0.458824 431:0.109804 432:0.909804 433:0.992157 434:0.337255 437:0.0745098 438:0.968627 439:0.458824 459:0.231373 460:0.992157 461:0.776471 462:0.0235294 466:0.686275 467:0.572549 487:0.0196078 488:0.85098 489:0.682353 494:0.686275 495:0.835294 515:0.0901961 516:0.898039 517:0.682353 522:0.686275 523:0.541176 544:0.843137 545:0.686275 549:0.0196078 550:0.760784 551:0.458824 572:0.839216 573:0.682353 577:0.109804 578:0.992157 579:0.458824 600:0.576471 601:0.780392 602:0.0235294 604:0.0745098 605:0.768627 606:0.992157 607:0.341176 628:0.211765 629:0.768627 630:0.717647 631:0.533333 632:0.937255 633:0.980392 634:0.454902 635:0.00784314 657:0.0705882 658:0.639216 659:0.694118 660:0.607843 661:0.266667 
0.2027606094462807 154:0.0196078 155:0.0666667 156:0.0470588 181:0.262745 182:0.776471 183:0.996078 184:0.913725 185:0.407843 207:0.117647 208:0.615686 209:0.968627 210:0.921569 211:0.666667 212:0.835294 213:0.964706 234:0.0745098 235:0.670588 236:0.964706 237:0.584314 238:0.0823529 240:0.8 241:0.396078 261:0.113725 262:0.835294 263:0.964706 264:0.337255 267:0.4 268:0.486275 288:0.109804 289:0.839216 290:0.964706 291:0.333333 316:0.47451 317:0.996078 318:0.494118 325:0.176471 326:0.282353 327:0.580392 328:0.619608 329:0.901961 330:0.901961 331:0.72549 332:0.396078 333:0.0196078 343:0.117647 344:0.882353 345:0.705882 346:0.0156863 351:0.27451 352:0.811765 353:0.976471 354:0.996078 355:0.996078 356:0.623529 357:0.384314 358:0.384314 359:0.729412 360:0.996078 361:0.937255 362:0.321569 371:0.462745 372:0.996078 373:0.372549 377:0.356863 378:0.831373 379:0.992157 380:0.996078 381:0.458824 382:0.227451 383:0.239216 384:0.00784314 387:0.00784314 388:0.113725 389:0.85098 390:0.882353 399:0.686275 400:0.713725 403:0.172549 404:0.792157 405:0.996078 406:0.886275 407:0.352941 417:0.419608 418:0.996078 427:0.996078 428:0.607843 431:0.454902 432:0.866667 433:0.435294 434:0.027451 444:0.145098 445:0.956863 446:0.513725 455:0.996078 456:0.47451 470:0.0196078 471:0.454902 472:0.972549 473:0.611765 474:0.00784314 483:1 484:0.537255 497:0.156863 498:0.764706 499:0.964706 500:0.494118 501:0.0156863 511:0.686275 512:0.658824 522:0.0117647 523:0.298039 524:0.733333 525:0.956863 526:0.796078 527:0.188235 539:0.294118 540:0.984314 541:0.466667 542:0.168627 546:0.0627451 547:0.184314 548:0.403922 549:0.733333 550:0.847059 551:0.996078 552:0.803922 553:0.32549 554:0.027451 567:0.00784314 568:0.376471 569:0.937255 570:0.980392 571:0.815686 572:0.545098 573:0.72549 574:0.909804 575:0.988235 576:0.996078 577:0.917647 578:0.643137 579:0.211765 580:0.0313725 597:0.207843 598:0.560784 599:0.737255 600:0.737255 601:0.737255 602:0.447059 603:0.419608 604:0.313725 605:0.0627451 
0.07765154017841946 123:0.215686 124:0.505882 125:0.996078 126:0.996078 127:0.996078 128:1 129:0.886275 130:0.152941 151:0.811765 152:0.992157 153:0.992157 154:0.992157 155:0.992157 156:0.992157 157:0.992157 158:0.796078 159:0.172549 178:0.439216 179:0.952941 180:0.992157 181:0.992157 182:0.988235 183:0.952941 184:0.976471 185:0.992157 186:0.992157 187:0.329412 206:0.552941 207:0.992157 208:0.992157 209:0.815686 210:0.615686 212:0.443137 213:0.737255 214:0.870588 215:0.231373 234:0.552941 235:0.992157 236:0.992157 237:0.4 241:0.0666667 242:0.258824 261:0.0235294 262:0.584314 263:0.992157 264:0.992157 265:0.4 289:0.298039 290:0.992157 291:0.992157 292:0.992157 293:0.4 317:0.298039 318:0.992157 319:0.992157 320:0.992157 321:0.4 345:0.266667 346:0.941176 347:0.992157 348:0.992157 349:0.905882 350:0.85098 351:0.85098 352:0.85098 353:0.172549 374:0.552941 375:0.992157 376:0.992157 377:0.992157 378:0.992157 379:0.992157 380:0.992157 381:0.898039 382:0.219608 402:0.552941 403:0.992157 404:0.992157 405:0.992157 406:0.992157 407:0.992157 408:0.992157 409:0.992157 410:0.843137 411:0.627451 412:0.0431373 430:0.47451 431:0.964706 432:0.992157 433:0.992157 434:0.972549 435:0.898039 436:0.992157 437:0.992157 438:0.992157 439:0.992157 440:0.0666667 459:0.811765 460:0.992157 461:0.992157 462:0.878431 463:0.219608 464:0.843137 465:0.992157 466:0.992157 467:0.992157 468:0.372549 487:0.811765 488:0.992157 489:0.992157 490:0.952941 491:0.419608 492:0.207843 493:0.921569 494:0.992157 495:0.992157 496:0.929412 497:0.368627 515:0.662745 516:0.866667 517:0.992157 518:0.992157 519:0.964706 520:0.458824 521:0.219608 522:0.992157 523:0.992157 524:0.992157 525:0.627451 526:0.054902 544:0.333333 545:0.992157 546:0.992157 547:0.992157 548:0.992157 549:0.580392 550:0.992157 551:0.992157 552:0.992157 553:0.992157 554:0.290196 572:0.0980392 573:0.705882 574:0.992157 575:0.992157 576:0.992157 577:0.992157 578:0.992157 579:0.992157 580:0.992157 581:0.992157 582:0.290196 601:0.462745 602:0.933333 603:0.85098 604:0.992157 605:0.992157 606:0.992157 607:0.992157 608:0.992157 609:0.890196 610:0.227451 630:0.384314 631:0.372549 632:0.992157 633:0.992157 634:0.992157 635:0.992157 636:0.901961 637:0.282353 659:0.0941176 660:0.254902 661:0.364706 662:0.992157 663:0.992157 664:0.254902 
0.4008863742472423 156:0.0117647 157:0.478431 158:0.960784 159:0.980392 160:0.647059 161:0.0901961 183:0.113725 184:0.713725 185:0.996078 186:0.996078 187:0.996078 188:0.996078 189:0.690196 209:0.247059 210:0.729412 211:0.94902 212:0.996078 213:0.996078 214:0.921569 215:0.737255 216:0.996078 217:0.670588 236:0.243137 237:0.803922 238:0.996078 239:0.996078 240:0.835294 241:0.341176 242:0.0235294 243:0.0588235 244:0.972549 245:0.564706 246:0.00392157 263:0.0392157 264:0.780392 265:0.996078 266:0.996078 267:0.811765 268:0.0745098 272:0.14902 273:0.388235 274:0.0156863 291:0.411765 292:0.996078 293:0.996078 294:0.713725 295:0.0862745 318:0.0509804 319:0.788235 320:0.996078 321:0.815686 322:0.0823529 346:0.192157 347:0.996078 348:0.996078 349:0.533333 373:0.0156863 374:0.658824 375:0.996078 376:0.913725 377:0.133333 401:0.0627451 402:0.996078 403:0.996078 404:0.568627 429:0.0627451 430:1 431:0.996078 432:0.701961 433:0.396078 434:0.396078 435:0.184314 436:0.0313725 457:0.152941 458:0.996078 459:0.996078 460:0.996078 461:0.996078 462:0.996078 463:0.933333 464:0.796078 465:0.0941176 485:0.0627451 486:0.996078 487:0.996078 488:0.654902 489:0.913725 490:0.996078 491:0.996078 492:0.996078 493:0.937255 494:0.345098 495:0.00784314 513:0.0588235 514:0.980392 515:0.921569 516:0.262745 517:0.0196078 518:0.121569 519:0.027451 520:0.454902 521:0.901961 522:0.996078 523:0.156863 542:0.615686 543:0.996078 544:0.662745 549:0.254902 550:0.996078 551:0.631373 570:0.117647 571:0.764706 572:0.945098 573:0.396078 577:0.184314 578:0.996078 579:0.556863 599:0.0901961 600:0.956863 601:0.803922 602:0.0705882 605:0.478431 606:0.996078 607:0.333333 628:0.639216 629:0.831373 630:0.764706 631:0.541176 632:0.454902 633:0.937255 634:0.996078 635:0.109804 657:0.427451 658:0.996078 659:0.996078 660:0.996078 661:0.996078 662:0.854902 663:0.0156863 685:0.133333 686:0.309804 687:0.968627 688:0.572549 689:0.247059 690:0.0666667 
0.1397460378577453 96:1 97:0.792157 98:0.0901961 123:0.411765 124:0.996078 125:0.992157 126:0.701961 127:0.0470588 150:0.0392157 151:0.85098 152:0.572549 153:0.419608 154:0.94902 155:0.180392 178:0.227451 179:0.992157 180:0.0784314 182:0.152941 206:0.678431 207:0.992157 234:0.784314 235:0.996078 262:0.780392 263:0.992157 269:0.141176 270:0.74902 271:0.921569 272:0.921569 273:0.921569 274:0.345098 275:0.0156863 289:0.0745098 290:0.886275 291:0.811765 296:0.054902 297:0.815686 298:0.909804 299:0.541176 300:0.368627 301:0.619608 302:0.945098 303:0.54902 317:0.145098 318:0.992157 319:0.635294 324:0.505882 325:0.972549 326:0.266667 330:0.360784 331:0.870588 332:0.0627451 345:0.145098 346:0.992157 347:0.635294 352:0.709804 353:0.709804 358:0.0823529 359:0.941176 360:0.141176 373:0.145098 374:0.996078 375:0.509804 379:0.0470588 380:0.894118 381:0.360784 387:0.8 388:0.141176 401:0.145098 402:0.992157 403:0.635294 407:0.278431 408:0.992157 409:0.356863 415:0.921569 416:0.141176 429:0.145098 430:0.992157 431:0.635294 435:0.427451 436:0.992157 437:0.356863 442:0.247059 443:0.796078 444:0.0196078 457:0.145098 458:0.992157 459:0.658824 463:0.427451 464:0.992157 465:0.203922 469:0.027451 470:0.466667 471:0.623529 485:0.0431373 486:0.839216 487:0.992157 491:0.427451 492:0.992157 497:0.486275 498:0.894118 499:0.145098 514:0.329412 515:0.996078 516:0.462745 519:0.301961 520:0.996078 521:0.105882 523:0.0431373 524:0.466667 525:0.996078 526:0.611765 542:0.0313725 543:0.54902 544:0.976471 545:0.513725 546:0.184314 547:0.0980392 548:0.992157 549:0.494118 550:0.419608 551:0.756863 552:0.976471 553:0.4 554:0.027451 572:0.372549 573:0.854902 574:0.972549 575:0.862745 576:0.992157 577:0.996078 578:0.909804 579:0.541176 580:0.333333 601:0.0470588 602:0.262745 603:0.286275 604:0.466667 605:0.796078 606:0.788235 607:0.0862745 608:0.0313725 609:0.0470588 634:0.541176 635:0.85098 636:0.803922 637:0.411765 
0.8066855323462542 125:0.101961 126:0.635294 127:0.631373 128:0.929412 129:0.996078 130:0.666667 131:0.027451 152:0.34902 153:0.937255 154:0.996078 155:0.992157 156:0.992157 157:0.992157 158:0.996078 159:0.647059 160:0.0352941 179:0.215686 180:0.960784 181:0.992157 182:0.996078 183:0.972549 184:0.909804 185:0.992157 186:0.996078 187:0.992157 188:0.384314 189:0.027451 206:0.2 207:0.968627 208:0.992157 209:0.992157 210:0.894118 211:0.25098 212:0.027451 213:0.403922 214:0.862745 215:0.992157 216:0.992157 217:0.270588 234:0.733333 235:0.996078 236:0.996078 237:0.894118 238:0.133333 242:0.235294 243:0.839216 244:0.870588 245:0.196078 261:0.0666667 262:0.996078 263:0.992157 264:0.972549 265:0.384314 271:0.0509804 272:0.0509804 289:0.364706 290:0.996078 291:0.992157 292:0.866667 317:0.623529 318:0.996078 319:0.92549 320:0.211765 345:0.72549 346:0.996078 347:0.811765 373:0.721569 374:0.996078 375:0.807843 376:0.0196078 377:0.117647 378:0.415686 379:0.741176 380:0.901961 381:0.901961 382:0.545098 383:0.113725 400:0.0117647 401:0.74902 402:0.996078 403:0.807843 404:0.423529 405:0.92549 406:0.996078 407:0.992157 408:0.992157 409:0.992157 410:0.996078 411:0.827451 412:0.247059 428:0.0941176 429:0.992157 430:0.996078 431:0.87451 432:0.878431 433:0.992157 434:0.996078 435:0.992157 436:0.694118 437:0.894118 438:0.996078 439:0.992157 440:0.835294 441:0.0980392 457:0.72549 458:0.996078 459:0.996078 460:0.996078 461:0.996078 462:0.823529 463:0.196078 467:0.67451 468:0.996078 469:0.631373 485:0.721569 486:0.996078 487:0.992157 488:0.992157 489:0.992157 490:0.0352941 495:0.113725 496:0.827451 497:0.960784 498:0.266667 513:0.721569 514:0.996078 515:0.843137 516:0.180392 517:0.180392 524:0.454902 525:0.992157 526:0.721569 541:0.592157 542:0.996078 543:0.941176 544:0.133333 552:0.454902 553:0.992157 554:0.721569 569:0.266667 570:1 571:0.996078 572:0.827451 573:0.372549 574:0.27451 575:0.27451 576:0.247059 577:0.2 578:0.27451 579:0.27451 580:0.733333 581:0.996078 582:0.498039 598:0.596078 599:0.992157 600:0.992157 601:0.992157 602:0.996078 603:0.992157 604:0.984314 605:0.968627 606:0.996078 607:0.992157 608:0.992157 609:0.92549 610:0.164706 626:0.0509804 627:0.376471 628:0.709804 629:0.992157 630:0.996078 631:0.992157 632:0.992157 633:0.992157 634:0.996078 635:0.956863 636:0.94902 637:0.443137 656:0.027451 657:0.270588 658:0.501961 659:0.760784 660:0.627451 661:0.368627 662:0.270588 663:0.172549 664:0.14902 
0.8499107855485929 125:0.0941176 126:0.792157 127:0.639216 153:0.47451 154:0.992157 155:0.635294 181:0.67451 182:0.992157 183:0.635294 208:0.0941176 209:0.913725 210:0.960784 211:0.239216 236:0.215686 237:0.992157 238:0.792157 264:0.568627 265:0.996078 266:0.341176 291:0.0627451 292:0.913725 293:0.52549 294:0.0156863 296:0.141176 297:0.215686 298:0.109804 319:0.466667 320:0.960784 321:0.596078 322:0.65098 323:0.85098 324:0.945098 325:0.992157 326:0.921569 327:0.698039 328:0.321569 347:0.792157 348:0.945098 349:0.960784 350:0.984314 351:0.662745 352:0.564706 353:0.564706 354:0.878431 355:0.992157 356:0.913725 374:0.384314 375:0.996078 376:0.992157 377:0.811765 378:0.337255 382:0.0941176 383:0.913725 384:0.992157 385:0.258824 402:0.713725 403:1 404:0.752941 405:0.180392 411:0.2 412:0.996078 413:0.360784 430:0.709804 431:0.933333 432:0.0784314 439:0.0745098 440:0.992157 441:0.686275 458:0.709804 459:0.709804 467:0.0745098 468:0.992157 469:0.658824 485:0.0588235 486:0.933333 487:0.831373 488:0.0313725 495:0.0745098 496:0.992157 497:0.356863 513:0.0745098 514:0.992157 515:0.792157 516:0.0196078 523:0.0745098 524:0.992157 525:0.101961 542:0.713725 543:1 544:0.0705882 551:0.301961 552:0.996078 570:0.631373 571:0.996078 572:0.4 578:0.0823529 579:0.878431 580:0.458824 598:0.180392 599:0.945098 600:0.835294 601:0.25098 605:0.109804 606:0.694118 607:0.701961 608:0.0431373 627:0.368627 628:0.937255 629:0.886275 630:0.627451 631:0.427451 632:0.784314 633:0.811765 634:0.690196 635:0.0470588 656:0.368627 657:0.686275 658:0.992157 659:0.862745 660:0.662745 661:0.223529 
0.9708527533416123 131:0.34902 132:0.811765 133:0.992157 157:0.14902 158:0.823529 159:0.964706 160:0.94902 161:0.654902 184:0.12549 185:0.870588 186:0.988235 187:0.937255 188:0.376471 211:0.137255 212:0.843137 213:0.992157 214:0.94902 215:0.376471 239:0.662745 240:0.988235 241:0.992157 242:0.34902 266:0.223529 267:0.992157 268:0.992157 269:0.309804 293:0.298039 294:0.905882 295:0.988235 296:0.8 321:0.458824 322:0.988235 323:0.960784 324:0.341176 348:0.360784 349:0.952941 350:0.988235 351:0.890196 352:0.0509804 375:0.309804 376:0.992157 377:0.988235 378:0.988235 379:0.988235 380:0.741176 403:0.552941 404:1 405:0.992157 406:0.992157 407:0.992157 408:0.992157 409:0.752941 410:0.0470588 431:0.0588235 432:0.992157 433:0.988235 434:0.729412 435:0.878431 436:0.988235 437:0.992157 438:0.290196 460:0.992157 461:0.988235 462:0.215686 463:0.231373 464:0.988235 465:0.992157 466:0.654902 488:0.992157 489:0.988235 490:0.215686 491:0.113725 492:0.988235 493:0.992157 494:0.654902 516:0.992157 517:0.988235 518:0.215686 519:0.113725 520:0.988235 521:0.992157 522:0.654902 544:1 545:0.992157 546:0.219608 547:0.113725 548:0.992157 549:1 550:0.415686 572:0.807843 573:0.988235 574:0.780392 575:0.52549 576:0.988235 577:0.992157 578:0.290196 600:0.443137 601:0.988235 602:0.988235 603:0.866667 604:0.988235 605:0.894118 606:0.203922 628:0.14902 629:0.854902 630:0.988235 631:0.988235 632:0.988235 633:0.494118 657:0.14902 658:0.866667 659:0.988235 660:0.678431 
0.9813137621595459 129:0.0784314 130:0.709804 131:1 132:0.996078 133:0.596078 134:0.027451 156:0.109804 157:0.835294 158:0.992157 159:0.878431 160:0.729412 161:0.992157 162:0.168627 183:0.0980392 184:0.827451 185:0.992157 186:0.980392 187:0.419608 188:0.0156863 189:0.345098 190:0.164706 210:0.0117647 211:0.52549 212:0.992157 213:0.980392 214:0.282353 238:0.384314 239:0.992157 240:0.992157 241:0.458824 265:0.0156863 266:0.87451 267:0.992157 268:0.992157 269:0.282353 270:0.0156863 293:0.603922 294:0.992157 295:0.992157 296:0.992157 297:0.992157 298:0.337255 320:0.0666667 321:0.843137 322:0.992157 323:0.992157 324:0.992157 325:0.992157 326:0.482353 347:0.0235294 348:0.764706 349:0.992157 350:0.992157 351:0.992157 352:0.992157 353:0.992157 354:0.858824 355:0.0823529 375:0.0431373 376:0.992157 377:0.992157 378:0.992157 379:0.992157 380:0.917647 381:0.980392 382:0.909804 383:0.121569 403:0.380392 404:0.992157 405:0.992157 406:0.658824 407:0.992157 408:0.631373 409:0.933333 410:0.992157 411:0.521569 430:0.164706 431:0.917647 432:0.992157 433:0.639216 434:0.498039 435:0.992157 436:0.631373 437:0.933333 438:0.992157 439:0.215686 458:0.321569 459:0.992157 460:0.992157 461:0.231373 462:0.490196 463:0.992157 464:0.717647 465:0.94902 466:0.839216 467:0.0666667 486:0.321569 487:0.992157 488:0.921569 489:0.145098 490:0.831373 491:0.992157 492:0.992157 493:0.992157 494:0.419608 514:0.72549 515:0.992157 516:0.756863 518:0.866667 519:0.992157 520:0.992157 521:0.984314 522:0.301961 542:0.741176 543:0.992157 544:0.380392 546:0.490196 547:0.992157 548:0.992157 549:0.929412 550:0.258824 551:0.6 552:0.027451 569:0.0705882 570:0.843137 571:0.992157 572:0.380392 574:0.658824 575:0.992157 576:0.992157 577:0.992157 578:0.992157 579:0.501961 580:0.00784314 597:0.00392157 598:0.745098 599:0.992157 600:0.717647 601:0.878431 602:0.992157 603:0.964706 604:0.866667 605:0.647059 606:0.345098 607:0.00392157 626:0.623529 627:0.992157 628:0.992157 629:0.992157 630:0.976471 631:0.564706 654:0.184314 655:0.588235 656:0.992157 657:0.666667 658:0.352941 
0.02845878678285335 92:0.370079 93:0.886275 94:0.141176 119:0.133858 120:0.890196 121:0.94902 122:0.101961 147:0.531496 148:0.996078 149:0.698039 174:0.0784314 175:0.917647 176:0.996078 177:0.698039 202:0.466667 203:0.996078 204:0.996078 205:0.356863 214:0.298039 215:0.662745 216:0.92549 217:0.92549 218:0.92549 219:0.701961 220:0.0823529 230:0.627451 231:0.996078 232:0.964706 233:0.0627451 241:0.317647 242:0.952941 243:0.996078 244:0.996078 245:0.996078 246:0.996078 247:0.996078 248:0.619608 249:0.0196078 258:0.627451 259:0.996078 260:0.835294 268:0.447059 269:0.964706 270:0.996078 271:0.772549 272:0.592157 273:0.294118 274:0.294118 275:0.972549 276:0.996078 277:0.258824 286:0.627451 287:0.996078 288:0.588235 295:0.443137 296:0.984314 297:0.996078 298:0.517647 299:0.0117647 303:0.521569 304:0.996078 305:0.611765 314:0.627451 315:0.996078 316:0.588235 322:0.317647 323:0.956863 324:0.996078 325:0.552941 326:0.0352941 331:0.266667 332:0.996078 333:0.623529 342:0.627451 343:0.996078 344:0.588235 350:0.85098 351:0.996078 352:0.901961 353:0.164706 359:0.592157 360:0.996078 361:0.623529 370:0.631373 371:0.996078 372:0.588235 377:0.321569 378:0.996078 379:1 380:0.372549 387:0.827451 388:1 389:0.396078 398:0.627451 399:0.996078 400:0.780392 405:0.784314 406:0.996078 407:0.941176 408:0.0431373 415:0.960784 416:0.976471 417:0.219608 426:0.615686 427:0.996078 428:0.956863 429:0.0156863 433:0.960784 434:0.996078 435:0.47451 441:0.00392157 442:0.423529 443:0.988235 444:0.870588 454:0.262745 455:0.996078 456:0.996078 457:0.443137 461:0.960784 462:0.996078 463:0.258824 469:0.0745098 470:0.996078 471:0.996078 472:0.270588 482:0.0196078 483:0.827451 484:0.996078 485:0.698039 489:0.960784 490:0.996078 491:0.258824 496:0.0352941 497:0.654902 498:0.996078 499:0.8 500:0.0666667 511:0.345098 512:0.976471 513:0.941176 514:0.25098 517:0.960784 518:0.996078 519:0.423529 523:0.0235294 524:0.384314 525:0.996078 526:0.819608 527:0.0862745 540:0.65098 541:0.996078 542:0.870588 543:0.0627451 545:0.835294 546:0.996078 547:0.74902 550:0.137255 551:0.666667 552:0.996078 553:0.941176 554:0.0862745 568:0.32549 569:0.996078 570:0.996078 571:0.913725 572:0.14902 573:0.592157 574:0.996078 575:0.996078 576:0.0862745 577:0.254902 578:0.756863 579:0.996078 580:0.952941 581:0.305882 596:0.00784314 597:0.368627 598:0.945098 599:0.996078 600:0.945098 601:0.937255 602:0.996078 603:0.996078 604:0.905882 605:0.980392 606:0.996078 607:0.85098 608:0.282353 626:0.211765 627:0.788235 628:0.996078 629:0.996078 630:0.996078 631:0.996078 632:0.996078 633:0.996078 634:0.827451 635:0.180392 
0.7457188664124471 106:0.0313725 107:0.482353 108:0.960784 109:0.745098 133:0.141176 134:0.788235 135:0.988235 136:0.823529 137:0.496063 160:0.160784 161:0.87451 162:0.992157 163:0.92549 164:0.282353 187:0.337255 188:0.882353 189:0.988235 190:0.952941 191:0.184314 214:0.141176 215:0.87451 216:0.988235 217:0.815686 218:0.137255 241:0.239216 242:0.890196 243:0.992157 244:0.847059 245:0.0705882 268:0.454902 269:0.992157 270:0.988235 271:0.788235 272:0.184314 295:0.266667 296:0.976471 297:0.992157 298:0.788235 299:0.0745098 322:0.333333 323:0.882353 324:0.988235 325:0.67451 326:0.0823529 349:0.313725 350:0.87451 351:0.988235 352:0.988235 353:0.419608 354:0.105882 376:0.168627 377:0.890196 378:0.992157 379:0.992157 380:0.992157 381:1 382:0.854902 383:0.290196 403:0.141176 404:0.890196 405:0.988235 406:0.988235 407:0.988235 408:0.988235 409:0.992157 410:0.988235 411:0.494118 430:0.12549 431:0.87451 432:0.992157 433:0.988235 434:0.988235 435:0.988235 436:0.988235 437:0.992157 438:0.988235 439:0.87451 457:0.0235294 458:0.607843 459:0.988235 460:0.992157 461:0.988235 462:0.384314 463:0.435294 464:0.396078 465:0.443137 466:0.988235 467:0.905882 485:0.431373 486:0.988235 487:0.988235 488:0.992157 489:0.988235 490:0.254902 493:0.686275 494:0.988235 495:0.560784 512:0.12549 513:0.929412 514:0.992157 515:0.92549 516:0.486275 517:0.654902 518:0.243137 520:0.313725 521:1 522:0.937255 523:0.243137 540:0.745098 541:0.988235 542:0.905882 543:0.211765 546:0.168627 547:0.439216 548:0.94902 549:0.992157 550:0.34902 568:0.745098 569:0.988235 570:0.866667 571:0.498039 572:0.913725 573:0.909804 574:0.94902 575:0.968627 576:0.905882 577:0.254902 578:0.0196078 596:0.745098 597:0.988235 598:0.988235 599:0.988235 600:0.992157 601:0.988235 602:0.866667 603:0.552941 624:0.262745 625:0.784314 626:0.988235 627:0.988235 628:0.576471 629:0.266667 630:0.0823529 
1 128:0.027451 129:0.27451 130:0.27451 131:0.27451 132:0.305882 133:0.631373 134:0.866667 135:0.996078 136:0.180392 155:0.266667 156:0.666667 157:0.807843 158:0.862745 159:0.992157 160:0.992157 161:0.992157 162:0.996078 163:0.956863 164:0.14902 181:0.133333 182:0.133333 183:0.0666667 186:0.0745098 187:0.529412 188:0.992157 189:0.992157 190:0.670588 191:0.180392 213:0.133333 214:0.666667 215:0.992157 216:0.956863 217:0.501961 240:0.12549 241:0.666667 242:0.996078 243:0.878431 244:0.2 267:0.101961 268:0.682353 269:0.992157 270:0.780392 271:0.235294 294:0.0588235 295:0.713725 296:0.992157 297:0.792157 298:0.0666667 321:0.133333 322:0.898039 323:0.992157 324:0.658824 325:0.0745098 348:0.160784 349:0.898039 350:0.996078 351:0.580392 375:0.0352941 376:0.815686 377:0.992157 378:0.647059 379:0.0745098 402:0.027451 403:0.65098 404:0.992157 405:0.992157 406:0.65098 407:0.388235 408:0.0941176 409:0.0588235 430:0.666667 431:0.992157 432:0.992157 433:0.992157 434:0.996078 435:0.992157 436:0.992157 437:0.894118 438:0.4 457:0.333333 458:1 459:0.996078 460:0.607843 461:0.364706 462:0.498039 463:0.556863 464:0.847059 465:0.996078 466:0.996078 467:0.419608 484:0.0862745 485:0.968627 486:0.996078 487:0.560784 488:0.0156863 492:0.0431373 493:0.54902 494:0.996078 495:0.807843 512:0.423529 513:0.992157 514:0.737255 515:0.0156863 520:0.0431373 521:0.54902 522:0.996078 523:0.643137 539:0.133333 540:0.941176 541:0.992157 542:0.0980392 548:0.584314 549:0.992157 550:0.894118 551:0.156863 567:0.282353 568:0.996078 569:0.764706 573:0.101961 574:0.372549 575:0.831373 576:0.996078 577:0.894118 578:0.133333 595:0.541176 596:0.992157 597:0.960784 598:0.317647 599:0.0823529 600:0.14902 601:0.741176 602:0.878431 603:0.976471 604:0.87451 605:0.286275 623:0.164706 624:0.843137 625:0.992157 626:0.996078 627:0.894118 628:0.960784 629:0.992157 630:0.72549 631:0.619608 632:0.0980392 652:0.027451 653:0.529412 654:0.996078 655:0.992157 656:0.992157 657:0.592157 658:0.196078 
0.4351687305157088 101:0.203922 102:0.933333 103:0.815686 104:0.0784314 129:0.576471 130:0.996078 131:0.996078 132:0.454902 156:0.0980392 157:0.929412 158:0.921569 159:0.407843 160:0.180392 184:0.568627 185:0.996078 186:0.556863 211:0.364706 212:0.988235 213:0.917647 214:0.105882 239:0.705882 240:0.996078 241:0.54902 266:0.360784 267:0.984314 268:0.964706 269:0.180392 294:0.709804 295:0.996078 296:0.545098 321:0.356863 322:0.980392 323:0.964706 324:0.298039 325:0.0666667 349:0.6 350:0.996078 351:0.682353 352:0.501961 353:0.898039 354:0.462745 376:0.0352941 377:0.901961 378:0.996078 379:0.827451 380:0.996078 381:0.996078 382:0.768627 404:0.384314 405:0.996078 406:0.996078 407:0.996078 408:0.996078 409:0.996078 410:0.537255 432:0.6 433:0.996078 434:0.996078 435:0.996078 436:0.72549 437:0.996078 438:0.501961 459:0.105882 460:0.941176 461:0.996078 462:0.996078 463:0.713725 464:0.529412 465:0.901961 466:0.113725 487:0.501961 488:0.996078 489:0.996078 490:0.980392 491:0.333333 492:0.752941 493:0.521569 515:0.576471 516:0.996078 517:0.996078 518:0.670588 519:0.290196 520:0.956863 521:0.501961 543:0.576471 544:0.996078 545:0.968627 546:0.831373 547:0.956863 548:0.752941 549:0.0509804 571:0.576471 572:0.996078 573:0.658824 574:0.819608 575:0.992157 576:0.258824 599:0.454902 600:0.996078 601:1 602:0.996078 603:0.584314 628:0.552941 629:0.996078 630:0.52549 631:0.0509804 
0.4247992912236812 102:0.6 103:0.968627 104:0.184314 129:0.2 130:0.933333 131:0.992157 132:0.282353 157:0.745098 158:0.992157 159:0.752941 160:0.0431373 184:0.25098 185:0.976471 186:0.905882 187:0.32549 212:0.764706 213:0.992157 214:0.498039 239:0.360784 240:1 241:0.917647 242:0.0901961 266:0.0156863 267:0.619608 268:0.996078 269:0.792157 270:0.0117647 294:0.25098 295:0.992157 296:0.996078 297:0.423529 322:0.427451 323:0.992157 324:0.768627 325:0.0156863 349:0.054902 350:0.756863 351:0.992157 352:0.458824 377:0.501961 378:0.996078 379:0.764706 404:0.0470588 405:0.858824 406:0.992157 407:0.839216 408:0.470588 409:0.0941176 432:0.392157 433:0.992157 434:0.992157 435:0.992157 436:0.996078 437:0.756863 438:0.0235294 460:0.592157 461:0.992157 462:0.992157 463:0.839216 464:0.866667 465:0.992157 466:0.164706 487:0.105882 488:0.94902 489:0.992157 490:0.686275 491:0.180392 492:0.996078 493:0.992157 494:0.368627 515:0.207843 516:0.976471 517:0.901961 518:0.0784314 519:0.360784 520:1 521:0.854902 522:0.0509804 543:0.266667 544:0.988235 545:0.878431 546:0.164706 547:0.847059 548:0.996078 549:0.701961 571:0.286275 572:0.992157 573:0.992157 574:0.941176 575:0.992157 576:0.952941 577:0.109804 599:0.164706 600:0.960784 601:0.992157 602:0.992157 603:0.964706 604:0.407843 628:0.466667 629:0.941176 630:0.839216 631:0.411765 
0.2511096038993156 101:0.223529 102:0.701961 129:0.690196 130:0.901961 156:0.105882 157:0.886275 158:0.901961 184:0.67451 185:0.988235 186:0.901961 211:0.0313725 212:0.756863 213:0.988235 214:0.619608 239:0.282353 240:0.988235 241:0.988235 242:0.133333 267:0.956863 268:0.988235 269:0.631373 270:0.00392157 295:0.992157 296:0.945098 297:0.309804 321:0.227451 322:0.733333 323:0.992157 324:0.596078 349:0.305882 350:0.988235 351:0.992157 352:0.490196 376:0.156863 377:0.694118 378:0.992157 379:1 380:0.992157 381:0.603922 403:0.0117647 404:0.705882 405:0.988235 406:0.988235 407:0.992157 408:0.988235 409:0.870588 410:0.027451 431:0.572549 432:0.988235 433:0.988235 434:0.988235 435:0.992157 436:0.988235 437:0.835294 438:0.027451 459:0.905882 460:0.988235 461:0.988235 462:0.537255 463:0.0392157 464:0.701961 465:0.6 487:0.811765 488:0.988235 489:0.921569 490:0.101961 491:0.0862745 492:0.886275 493:0.6 515:0.478431 516:0.988235 517:0.686275 519:0.619608 520:0.988235 521:0.6 543:0.682353 544:0.988235 545:0.666667 546:0.0392157 547:0.992157 548:0.752941 549:0.0509804 571:0.905882 572:0.988235 573:0.513725 574:0.941176 575:0.972549 576:0.415686 599:0.905882 600:0.988235 601:0.988235 602:0.988235 603:0.415686 627:0.905882 628:0.988235 629:0.858824 630:0.372549 
0.3374545465551059 97:0.152941 98:0.490196 99:0.490196 100:0.607843 101:0.529412 124:0.396078 125:0.627451 126:0.996078 127:1 128:0.996078 129:0.792157 151:0.384314 152:0.913725 153:0.996078 154:0.996078 155:0.996078 156:0.898039 157:0.447059 178:0.360784 179:0.988235 180:0.996078 181:0.996078 182:0.666667 183:0.192157 184:0.0588235 206:0.85098 207:0.996078 208:0.996078 209:0.521569 210:0.0235294 233:0.545098 234:0.984314 235:0.996078 236:0.254902 237:0.0235294 261:0.92549 262:0.996078 263:0.690196 264:0.0235294 288:0.364706 289:0.984314 290:0.878431 291:0.176471 298:0.160784 316:0.701961 317:0.996078 318:0.721569 319:0.0352941 324:0.188235 325:0.796078 326:0.901961 327:0.717647 328:0.286275 329:0.254902 344:0.439216 345:0.996078 346:0.996078 347:0.12549 350:0.207843 351:0.654902 352:0.823529 353:0.996078 354:0.996078 355:0.996078 356:0.996078 357:0.976471 358:0.45098 372:0.439216 373:0.996078 374:0.709804 375:0.0313725 377:0.0745098 378:0.843137 379:0.996078 380:0.996078 381:0.996078 382:0.956863 383:0.8 384:0.996078 385:0.996078 386:0.937255 387:0.101961 400:0.439216 401:0.996078 402:0.611765 404:0.243137 405:0.803922 406:0.996078 407:0.996078 408:0.843137 409:0.423529 410:0.231373 411:0.0431373 412:0.607843 413:0.917647 414:0.996078 415:0.435294 428:0.439216 429:0.996078 430:0.611765 432:0.690196 433:0.996078 434:0.945098 435:0.686275 436:0.0784314 441:0.615686 442:0.996078 443:0.435294 456:0.439216 457:0.996078 458:0.611765 459:0.243137 460:0.94902 461:0.996078 462:0.372549 469:0.615686 470:0.996078 471:0.435294 484:0.439216 485:0.996078 486:0.662745 487:0.333333 488:0.913725 489:0.956863 490:0.176471 496:0.0196078 497:0.666667 498:0.996078 499:0.435294 512:0.396078 513:0.992157 514:0.996078 515:0.12549 516:0.129412 517:0.266667 523:0.0705882 524:0.486275 525:1 526:0.996078 527:0.435294 541:0.92549 542:0.996078 543:0.458824 544:0.0117647 549:0.0588235 550:0.439216 551:0.862745 552:0.996078 553:1 554:0.913725 555:0.176471 569:0.635294 570:0.996078 571:0.996078 572:0.631373 573:0.564706 574:0.564706 575:0.564706 576:0.564706 577:0.878431 578:0.996078 579:0.996078 580:0.996078 581:0.913725 582:0.176471 597:0.192157 598:0.654902 599:0.996078 600:0.996078 601:0.996078 602:0.996078 603:0.996078 604:0.996078 605:0.996078 606:0.996078 607:0.980392 608:0.639216 609:0.176471 627:0.607843 628:0.996078 629:0.996078 630:0.996078 631:0.996078 632:0.996078 633:0.890196 634:0.486275 635:0.160784 
1 128:0.584314 129:0.901961 130:0.784314 131:0.411765 154:0.0784314 155:0.52549 156:0.996078 157:0.996078 158:0.996078 159:0.929412 160:0.380392 181:0.0705882 182:0.643137 183:0.996078 184:0.976471 185:0.964706 186:0.996078 187:0.996078 188:0.996078 189:0.537255 209:0.560784 210:0.996078 211:0.996078 212:0.4 213:0.756863 214:0.772549 215:0.392157 216:0.964706 217:0.929412 218:0.105882 236:0.168627 237:0.921569 238:0.996078 239:0.756863 240:0.0117647 241:0.509804 242:0.254902 243:0.160784 244:0.94902 245:0.996078 246:0.141176 264:0.654902 265:0.996078 266:0.941176 267:0.145098 271:0.427451 272:1 273:0.811765 274:0.0431373 291:0.0823529 292:0.956863 293:0.996078 294:0.768627 299:0.713725 300:0.996078 301:0.372549 319:0.568627 320:0.996078 321:0.882353 322:0.133333 327:0.615686 328:0.843137 329:0.113725 346:0.00784314 347:0.882353 348:0.996078 349:0.584314 350:0.431373 351:0.431373 352:0.196078 353:0.0156863 355:0.0509804 356:0.0823529 374:0.372549 375:0.996078 376:0.996078 377:0.996078 378:0.996078 379:0.996078 380:0.996078 381:0.862745 382:0.4 383:0.0588235 401:0.0823529 402:0.937255 403:0.996078 404:0.996078 405:0.831373 406:0.52549 407:0.203922 408:0.439216 409:0.901961 410:0.996078 411:0.607843 428:0.188235 429:0.952941 430:0.996078 431:0.996078 432:0.521569 433:0.0117647 437:0.156863 438:0.898039 439:0.866667 440:0.0588235 456:0.635294 457:0.996078 458:0.996078 459:0.976471 460:0.227451 466:0.529412 467:0.996078 468:0.411765 483:0.137255 484:0.984314 485:0.996078 486:0.996078 487:0.937255 494:0.529412 495:0.996078 496:0.458824 511:0.0431373 512:0.682353 513:0.996078 514:0.996078 515:0.937255 522:0.823529 523:0.776471 524:0.0313725 540:0.0352941 541:0.72549 542:1 543:0.937255 548:0.0470588 549:0.533333 550:0.992157 551:0.658824 569:0.509804 570:0.996078 571:0.976471 572:0.235294 575:0.105882 576:0.854902 577:0.996078 578:0.964706 579:0.207843 597:0.160784 598:0.996078 599:0.996078 600:0.905882 601:0.513725 602:0.533333 603:0.913725 604:0.996078 605:0.984314 606:0.337255 625:0.0392157 626:0.647059 627:0.972549 628:0.996078 629:0.996078 630:0.996078 631:0.996078 632:0.776471 633:0.337255 655:0.352941 656:0.858824 657:0.996078 658:0.913725 659:0.431373 660:0.00392157 
0.637525313317359 66:0.776471 67:0.243137 93:0.329412 94:0.988235 95:0.478431 121:0.901961 122:0.941176 123:0.243137 148:0.152941 149:0.960784 150:0.407843 176:0.278431 177:0.992157 178:0.101961 204:0.443137 205:0.992157 206:0.101961 232:0.615686 233:0.992157 234:0.101961 243:0.027451 244:0.105882 245:0.341176 246:0.054902 260:0.615686 261:0.992157 262:0.101961 270:0.258824 271:0.788235 272:0.952941 273:0.933333 274:0.87451 275:0.717647 276:0.12549 288:0.866667 289:0.898039 290:0.0627451 297:0.25098 298:0.878431 299:0.756863 300:0.156863 301:0.0470588 302:0.321569 303:0.784314 304:0.831373 305:0.0117647 316:0.960784 317:0.74902 325:0.890196 326:0.682353 327:0.0235294 331:0.176471 332:0.909804 333:0.392157 344:0.964706 345:0.752941 352:0.454902 353:1 354:0.152941 360:0.415686 361:0.615686 372:0.960784 373:0.74902 380:0.686275 381:0.694118 382:0.00392157 388:0.415686 389:0.611765 400:0.960784 401:0.74902 407:0.117647 408:0.972549 409:0.368627 416:0.415686 417:0.611765 428:0.960784 429:0.8 430:0.0235294 435:0.45098 436:0.992157 437:0.27451 444:0.486275 445:0.611765 456:0.780392 457:0.992157 458:0.101961 463:0.721569 464:0.933333 471:0.113725 472:0.878431 473:0.439216 484:0.568627 485:0.992157 486:0.101961 491:0.721569 492:0.647059 499:0.498039 500:0.886275 501:0.0470588 512:0.278431 513:0.992157 514:0.376471 519:0.721569 520:0.647059 525:0.0196078 526:0.317647 527:0.937255 528:0.403922 540:0.0666667 541:0.941176 542:0.717647 543:0.0117647 547:0.694118 548:0.792157 549:0.027451 552:0.0392157 553:0.584314 554:0.980392 555:0.47451 569:0.537255 570:0.988235 571:0.576471 572:0.0666667 575:0.247059 576:0.980392 577:0.588235 578:0.588235 579:0.721569 580:0.862745 581:0.776471 582:0.411765 598:0.772549 599:0.992157 600:0.737255 601:0.686275 602:0.427451 603:0.47451 604:0.898039 605:0.996078 606:0.992157 607:0.788235 608:0.278431 
0.4666880030788113 100:0.0392157 101:0.713725 102:0.45098 128:0.631373 129:0.992157 130:0.721569 155:0.0862745 156:0.960784 157:0.992157 158:0.282353 183:0.611765 184:0.996078 185:0.501961 186:0.00392157 210:0.0352941 211:0.827451 212:0.980392 213:0.270588 238:0.286275 239:0.992157 240:0.572549 265:0.0784314 266:0.909804 267:0.890196 268:0.109804 293:0.121569 294:0.992157 295:0.690196 321:0.372549 322:0.992157 323:0.447059 349:0.698039 350:0.862745 351:0.0627451 376:0.0235294 377:0.913725 378:0.929412 379:0.784314 380:1 381:0.792157 382:0.168627 404:0.0862745 405:0.992157 406:0.992157 407:0.992157 408:0.996078 409:0.992157 410:0.788235 411:0.0156863 432:0.596078 433:0.992157 434:0.933333 435:0.537255 436:0.121569 437:0.541176 438:0.992157 439:0.294118 460:0.341176 461:0.94902 462:0.133333 465:0.486275 466:0.992157 467:0.329412 488:0.333333 489:0.870588 492:0.0156863 493:0.741176 494:0.992157 495:0.101961 516:0.333333 517:0.870588 520:0.34902 521:0.992157 522:0.686275 523:0.00784314 544:0.603922 545:0.870588 547:0.0117647 548:0.776471 549:0.992157 550:0.423529 572:0.333333 573:0.921569 574:0.176471 575:0.568627 576:0.996078 577:0.788235 578:0.152941 600:0.0862745 601:0.992157 602:0.992157 603:0.992157 604:0.976471 605:0.219608 628:0.00392157 629:0.254902 630:0.937255 631:0.992157 632:0.356863 
1 125:0.121569 126:0.996078 127:0.996078 128:0.996078 129:0.411765 153:0.117647 154:0.992157 155:0.992157 156:0.992157 157:0.407843 181:0.117647 182:0.992157 183:0.992157 184:0.992157 185:0.407843 209:0.117647 210:0.992157 211:0.992157 212:0.992157 213:0.407843 237:0.639216 238:0.992157 239:0.992157 240:0.992157 241:0.407843 265:0.701961 266:0.992157 267:0.992157 268:0.866667 269:0.121569 292:0.156863 293:0.858824 294:0.992157 295:0.992157 296:0.815686 320:0.294118 321:0.992157 322:0.992157 323:0.992157 324:0.262745 348:0.745098 349:0.992157 350:0.992157 351:0.929412 352:0.192157 376:0.878431 377:0.992157 378:0.992157 379:0.639216 404:0.886275 405:0.996078 406:0.996078 407:0.643137 432:0.878431 433:0.992157 434:0.992157 435:0.639216 460:0.878431 461:0.992157 462:0.992157 463:0.658824 464:0.0156863 488:0.878431 489:0.992157 490:0.992157 491:0.992157 492:0.231373 516:0.705882 517:0.992157 518:0.992157 519:0.992157 520:0.74902 544:0.0862745 545:0.717647 546:0.992157 547:0.992157 548:0.941176 549:0.290196 552:0.00784314 553:0.117647 554:0.466667 555:0.0352941 573:0.0588235 574:0.745098 575:0.992157 576:0.992157 577:0.717647 578:0.529412 579:0.219608 580:0.556863 581:0.992157 582:0.835294 583:0.137255 602:0.0313725 603:0.733333 604:0.992157 605:0.992157 606:1 607:0.960784 608:0.992157 609:0.992157 610:0.494118 631:0.0823529 632:0.337255 633:0.815686 634:0.996078 635:0.992157 636:0.992157 637:0.631373 638:0.027451 662:0.411765 663:0.545098 664:0.607843 665:0.215686 
0.001527349438781313 96:0.0509804 97:0.411765 98:0.615686 99:0.992157 100:0.992157 101:0.243137 123:0.0705882 124:0.666667 125:0.988235 126:0.988235 127:0.988235 128:0.988235 129:0.101961 151:0.670588 152:0.988235 153:0.988235 154:0.964706 155:0.823529 156:0.345098 178:0.223529 179:0.929412 180:0.988235 181:0.988235 182:0.360784 205:0.227451 206:0.929412 207:0.988235 208:0.988235 209:0.517647 210:0.00784314 232:0.0313725 233:0.682353 234:0.988235 235:0.988235 236:0.901961 237:0.137255 260:0.235294 261:0.988235 262:0.988235 263:0.988235 264:0.556863 288:0.443137 289:0.988235 290:0.988235 291:0.501961 292:0.0156863 315:0.317647 316:0.94902 317:0.988235 318:0.988235 319:0.113725 328:0.0862745 329:0.12549 330:0.12549 331:0.0823529 343:0.411765 344:0.988235 345:0.988235 346:0.709804 347:0.0470588 353:0.584314 354:0.584314 355:0.584314 356:0.772549 357:0.866667 358:0.870588 359:0.772549 360:0.584314 361:0.137255 371:1 372:0.992157 373:0.968627 374:0.309804 378:0.14902 379:0.411765 380:0.752941 381:1 382:0.992157 383:0.992157 384:0.992157 385:0.992157 386:0.992157 387:0.992157 388:0.992157 389:0.890196 390:0.168627 399:0.992157 400:0.988235 401:0.929412 405:0.12549 406:0.847059 407:0.988235 408:0.988235 409:0.992157 410:0.988235 411:0.988235 412:0.988235 413:0.988235 414:0.988235 415:0.988235 416:0.988235 417:0.988235 418:0.886275 427:0.992157 428:0.988235 429:0.929412 431:0.054902 432:0.129412 433:0.823529 434:0.988235 435:0.988235 436:0.988235 437:0.933333 438:0.447059 439:0.345098 440:0.345098 441:0.345098 442:0.345098 443:0.345098 444:0.952941 445:0.988235 446:0.988235 455:0.992157 456:0.988235 457:0.929412 458:0.223529 459:0.929412 460:0.988235 461:0.988235 462:0.988235 463:0.988235 464:0.709804 472:0.933333 473:0.988235 474:0.988235 483:0.992157 484:0.988235 485:0.980392 486:0.929412 487:0.988235 488:0.988235 489:0.988235 490:0.882353 491:0.588235 492:0.0470588 499:0.156863 500:0.94902 501:0.988235 502:0.474308 511:0.992157 512:0.988235 513:0.988235 514:0.988235 515:0.988235 516:0.901961 517:0.556863 518:0.188235 526:0.0156863 527:0.580392 528:0.988235 529:0.866142 530:0.118577 539:0.682353 540:0.988235 541:0.988235 542:0.988235 543:0.831373 544:0.137255 553:0.156863 554:0.580392 555:0.988235 556:0.988235 557:0.503937 567:0.411765 568:0.988235 569:0.988235 570:0.988235 571:0.352941 580:0.168627 581:0.882353 582:0.988235 583:0.988235 584:0.654902 585:0.015748 595:0.337255 596:0.956863 597:0.988235 598:0.988235 599:0.745098 600:0.156863 605:0.176471 606:0.176471 607:0.552941 608:0.866667 609:0.988235 610:0.988235 611:0.894118 612:0.180392 624:0.337255 625:0.403922 626:0.403922 627:0.403922 628:0.356863 633:0.407843 634:0.403922 635:0.403922 636:0.403922 637:0.403922 638:0.403922 639:0.192157 
1 97:0.14902 98:0.509804 99:0.992157 100:1 101:0.415686 124:0.12549 125:0.847059 126:0.988235 127:0.988235 128:0.756863 129:0.231373 151:0.0784314 152:0.823529 153:0.988235 154:0.988235 155:0.603922 179:0.117647 180:0.988235 181:0.988235 182:0.901961 183:0.215686 206:0.0901961 207:0.717647 208:0.988235 209:0.988235 210:0.294118 233:0.0588235 234:0.717647 235:0.988235 236:0.988235 237:0.737255 238:0.0666667 244:0.0352941 245:0.117647 246:0.431373 247:0.698039 248:0.596078 249:0.117647 260:0.0313725 261:0.741176 262:0.988235 263:0.988235 264:0.988235 265:0.635294 272:0.6 273:0.988235 274:0.988235 275:0.988235 276:0.988235 277:0.988235 288:0.611765 289:0.988235 290:0.988235 291:0.988235 292:0.8 293:0.0666667 298:0.266667 299:0.933333 300:0.980392 301:0.988235 302:0.988235 303:0.988235 304:0.988235 305:0.988235 315:0.0431373 316:0.701961 317:0.988235 318:0.988235 319:0.792157 320:0.109804 324:0.0745098 325:0.658824 326:0.905882 327:0.988235 328:0.988235 329:0.882353 330:0.988235 331:0.988235 332:0.988235 333:0.882353 343:0.576471 344:0.988235 345:0.988235 346:0.988235 347:0.290196 352:0.752941 353:0.988235 354:0.988235 355:0.988235 356:0.811765 357:0.576471 358:0.988235 359:0.988235 360:0.882353 361:0.168627 370:0.172549 371:0.890196 372:0.992157 373:0.992157 374:0.458824 379:0.584314 380:1 381:0.992157 382:0.968627 383:0.309804 384:0.533333 385:0.992157 386:0.992157 387:0.992157 388:0.231373 398:0.411765 399:0.988235 400:0.988235 401:0.988235 402:0.113725 407:0.584314 408:0.992157 409:0.988235 410:0.941176 411:0.509804 412:0.968627 413:0.988235 414:0.988235 415:0.556863 416:0.0392157 426:0.788235 427:0.988235 428:0.988235 429:0.682353 430:0.0392157 434:0.117647 435:0.847059 436:0.992157 437:0.988235 438:0.988235 439:0.988235 440:0.988235 441:0.988235 442:0.643137 443:0.0196078 454:0.992157 455:0.988235 456:0.956863 457:0.27451 462:0.176471 463:0.988235 464:0.992157 465:0.988235 466:0.988235 467:0.988235 468:0.988235 469:0.988235 470:0.462745 482:0.992157 483:0.988235 484:0.929412 490:0.34902 491:0.988235 492:0.992157 493:0.988235 494:0.988235 495:0.988235 496:0.898039 497:0.623529 498:0.054902 510:0.992157 511:0.988235 512:0.933333 513:0.0627451 514:0.0352941 515:0.117647 516:0.117647 517:0.666667 518:0.921569 519:0.988235 520:0.992157 521:0.956863 522:0.870588 523:0.592157 524:0.203922 538:0.992157 539:0.988235 540:0.988235 541:0.768627 542:0.662745 543:0.988235 544:0.988235 545:0.988235 546:0.988235 547:0.988235 548:0.992157 549:0.443137 566:0.784314 567:0.988235 568:0.988235 569:0.988235 570:0.988235 571:0.988235 572:0.988235 573:0.988235 574:0.92549 575:0.635294 576:0.054902 577:0.0117647 594:0.337255 595:0.85098 596:0.988235 597:0.988235 598:0.988235 599:0.988235 600:0.894118 601:0.603922 602:0.188235 623:0.0980392 624:0.403922 625:0.403922 626:0.403922 627:0.403922 628:0.192157 
1 153:0.156863 154:0.603922 155:0.682353 156:0.952941 157:0.921569 158:0.490196 159:0.0352941 180:0.305882 181:0.917647 182:0.996078 183:0.996078 184:0.996078 185:0.996078 186:0.996078 187:0.894118 188:0.14902 207:0.227451 208:0.992157 209:0.996078 210:0.996078 211:0.996078 212:0.996078 213:0.996078 214:0.996078 215:0.996078 216:0.847059 235:0.54902 236:0.996078 237:0.996078 238:0.996078 239:0.996078 240:0.831373 241:0.207843 242:0.666667 243:0.996078 244:0.694118 263:0.678431 264:0.996078 265:0.996078 266:0.996078 267:0.960784 268:0.364706 271:0.12549 272:0.0352941 290:0.0705882 291:0.945098 292:0.996078 293:0.996078 294:0.929412 295:0.231373 318:0.247059 319:0.996078 320:0.996078 321:0.996078 322:0.882353 346:0.556863 347:0.996078 348:0.996078 349:0.996078 350:0.596078 351:0.117647 352:0.317647 353:0.0666667 354:0.0470588 374:0.556863 375:0.996078 376:0.996078 377:0.996078 378:0.996078 379:0.996078 380:0.996078 381:0.996078 382:0.921569 383:0.32549 384:0.0352941 402:0.305882 403:1 404:0.996078 405:0.996078 406:0.996078 407:1 408:0.996078 409:0.996078 410:0.996078 411:0.996078 412:0.584314 430:0.239216 431:0.996078 432:0.996078 433:0.996078 434:0.87451 435:0.32549 436:0.156863 437:0.156863 438:0.45098 439:0.929412 440:0.984314 441:0.368627 458:0.027451 459:0.929412 460:0.996078 461:0.941176 462:0.0627451 467:0.388235 468:0.996078 469:0.552941 487:0.921569 488:0.996078 489:0.933333 495:0.352941 496:0.996078 497:0.552941 515:0.811765 516:0.996078 517:0.933333 523:0.352941 524:0.996078 525:0.552941 543:0.266667 544:0.988235 545:0.933333 551:0.352941 552:0.996078 553:0.552941 572:0.968627 573:0.933333 579:0.529412 580:0.996078 581:0.552941 600:0.913725 601:0.984314 602:0.419608 606:0.301961 607:0.996078 608:0.901961 609:0.282353 628:0.207843 629:0.996078 630:0.945098 631:0.541176 632:0.541176 633:0.619608 634:0.945098 635:0.996078 636:0.6 656:0.00392157 657:0.235294 658:0.929412 659:0.996078 660:0.996078 661:0.996078 662:0.996078 663:0.996078 664:0.415686 686:0.172549 687:0.615686 688:0.780392 689:0.678431 690:0.286275 691:0.0470588 692:0.0156863 
0.004182520487517062 123:0.368627 124:0.996078 125:0.94902 126:0.0862745 151:0.486275 152:0.996078 153:0.996078 154:0.27451 179:0.486275 180:0.996078 181:0.996078 182:0.27451 207:0.792157 208:0.996078 209:0.996078 210:0.27451 235:0.827451 236:0.996078 237:0.996078 238:0.27451 262:0.192157 263:0.964706 264:0.909804 265:0.764706 266:0.141176 290:0.513725 291:0.996078 292:0.890196 293:0.141176 296:0.0705882 297:0.65098 298:0.792157 299:0.717647 300:0.254902 318:0.513725 319:0.996078 320:0.890196 323:0.027451 324:0.796078 325:0.996078 326:0.929412 327:0.964706 328:0.952941 329:0.129412 346:0.501961 347:0.996078 348:0.760784 350:0.0156863 351:0.709804 352:1 353:0.533333 354:0.0196078 355:0.423529 356:0.996078 357:0.419608 374:0.172549 375:0.996078 376:0.666667 378:0.396078 379:0.996078 380:0.662745 381:0.0117647 383:0.207843 384:0.996078 385:0.513725 402:0.176471 403:0.996078 404:0.894118 406:0.72549 407:0.996078 408:0.239216 411:0.207843 412:0.996078 413:0.411765 430:0.0666667 431:0.890196 432:0.992157 433:0.298039 434:0.984314 435:0.898039 439:0.423529 440:0.996078 441:0.172549 459:0.741176 460:0.996078 461:0.592157 462:0.996078 463:0.65098 467:0.54902 468:0.894118 469:0.0705882 487:0.172549 488:0.996078 489:0.980392 490:0.937255 491:0.65098 495:0.741176 496:0.823529 515:0.117647 516:0.960784 517:0.92549 518:0.721569 519:0.65098 522:0.0431373 523:0.913725 524:0.52549 544:0.792157 545:0.984314 546:0.494118 547:0.894118 548:0.0509804 550:0.572549 551:0.964706 552:0.176471 572:0.635294 573:0.996078 574:0.466667 575:0.501961 576:0.654902 577:0.266667 578:0.980392 579:0.631373 600:0.145098 601:0.894118 602:0.988235 603:0.235294 604:0.152941 605:0.894118 606:0.870588 607:0.141176 629:0.494118 630:0.984314 631:0.807843 632:0.901961 633:0.984314 634:0.278431 658:0.47451 659:0.890196 660:0.772549 661:0.352941 
